# Input file: /mnt/c/Users/Yu/Desktop/Stage/korebaju-ASR/main/lang_ml/ngramcorpus.txt
# Token count: 1140
# Smoothing: Modified Kneser-Ney
\data\
ngram 1=231
ngram 2=459
ngram 3=686

\1-grams:
-2.9553547	<unk>	0
0	<s>	-2.1818435
-2.6580524	</s>	0
-2.483211	cɨ̀kɨ́nà	-0.30103
-2.483211	ìká-mè	-0.30103
-2.6580524	po'o	-0.30103
-0.3057702	kòrèbàhɨ́	-2.0588055
-2.483211	t͡ʃɨ́òpí	-0.30103
-2.6580524	t͡ʃio	-0.30103
-2.6580524	piˀnimo	-0.30103
-2.6580524	có*òcé	-0.30103
-2.6580524	ɨ*ɨmɨ̃	-0.30103
-2.6580524	íè	-0.30103
-2.6580524	sìɦó-pɨ̀	-0.30103
-2.6580524	kaimɨ̃̀	-0.30103
-2.6580524	à*só	-0.30103
-2.6580524	nèˀné-mɨ̀	-0.30103
-2.6580524	t͡ʃãˀsamɨ̃̀	-0.30103
-2.6580524	t͡ʃã*o	-0.30103
-2.6580524	cʲóʔó-mɨ̀	-0.30103
-2.6580524	sɨ̃sɨ	-0.30103
-2.6580524	kõˀsa	-0.30103
-2.6580524	àpè-cʲé	-0.30103
-2.6580524	hèˀná	-0.30103
-2.6580524	pia	-0.30103
-2.6580524	oˀromɨ̃	-0.30103
-2.6580524	u*utĩˀkirɨ	-0.30103
-2.6580524	tʰòɲ̥ʲò-ɲʲé	-0.30103
-2.6580524	ìnsí	-0.30103
-2.6580524	t͡ʃiimo	-0.30103
-2.6580524	kaa	-0.30103
-2.6580524	ãˀkapɨ	-0.30103
-2.6580524	kónsàá	-0.30103
-2.6580524	kʰóˀkʰó-mà̰-mɨ̀	-0.30103
-2.6580524	ho*e	-0.30103
-2.6580524	àɨ́	-0.30103
-2.6580524	hu'epɨ̃	-0.30103
-2.6580524	muˀkamɨ̃	-0.30103
-2.6580524	pǎːmɨ̃̀	-0.30103
-2.6580524	tʰâːɲʲè	-0.30103
-2.6580524	cʲɨ̌ː-mɨ̀	-0.30103
-2.6580524	mǎː	-0.30103
-2.6580524	t͡ʃɨ̀í	-0.30103
-2.6580524	pãʔĩ	-0.30103
-2.6580524	ɸèémɨ̃̀	-0.30103
-2.6580524	cʲô-ɦɨ́*ɨ̀	-0.30103
-2.6580524	t͡ʃi*ime	-0.30103
-2.6580524	t͡ʃãumɨ̃̀	-0.30103
-2.6580524	ápè-ɦáˀ-mɨ̀	-0.30103
-2.6580524	cʲɨ̂-ːsósìkʰà-m	-0.30103
-2.6580524	ũkupiramɨ̃	-0.30103
-2.6580524	ɲaʔuɲaʔumɨ̃̀	-0.30103
-2.6580524	t͡ʃãsamɨ̃̀	-0.30103
-2.6580524	kátà-pɨ́	-0.30103
-2.6580524	sìɦó-pɨ̀-á	-0.30103
-2.6580524	kòhí	-0.30103
-2.6580524	t͡ʃa*opo	-0.30103
-2.6580524	t͡ʃĩ*õ	-0.30103
-2.6580524	hɨ̀tʰɨ́	-0.30103
-2.6580524	sɨ̃ʔsɨ	-0.30103
-2.6580524	nè*é-màˀ-mɨ̀	-0.30103
-2.6580524	tʰàɾá	-0.30103
-2.6580524	maˀʰɲoko	-0.30103
-2.6580524	ísḭ̀-pɨ́	-0.30103
-2.6580524	kʰùtʰù-máˀ-mɨ̀	-0.30103
-2.6580524	ɨ́ɦà-wɨ́	-0.30103
-2.6580524	pà*í-mɨ̀	-0.30103
-2.6580524	pìtʰó	-0.30103
-2.6580524	hàˀkɨ́	-0.30103
-2.6580524	wèkʰɨ́	-0.30103
-2.6580524	rèʔómɨ̃̀	-0.30103
-2.6580524	ôːˀ-wɨ́	-0.30103
-2.6580524	siˀsi*a	-0.30103
-2.6580524	cʲókʰò-ɲʲá	-0.30103
-2.6580524	kaβaˀna	-0.30103
-2.6580524	t͡ʃot͡ʃo	-0.30103
-2.6580524	tʰáɾà-pɨ́	-0.30103
-2.6580524	ěː-mɨ̀	-0.30103
-2.6580524	hueˀpɨ̃	-0.30103
-2.6580524	áì-ʔó	-0.30103
-2.6580524	áì-pá	-0.30103
-2.6580524	kʰàí-mɨ̀	-0.30103
-2.6580524	eamɨ̃̀	-0.30103
-2.6580524	ko*ɨmɨ̃	-0.30103
-2.6580524	kʰòmáɲè	-0.30103
-2.6580524	à*í	-0.30103
-2.6580524	ũˀku	-0.30103
-2.6580524	koɨo	-0.30103
-2.6580524	wìtʰó	-0.30103
-2.6580524	ponɨmɨ	-0.30103
-2.6580524	o*a	-0.30103
-2.6580524	ìká-mó	-0.30103
-2.6580524	t͡ʃai	-0.30103
-2.6580524	e*amɨ̃̀	-0.30103
-2.6580524	ápè-máˀ-m	-0.30103
-2.6580524	ihaˀt͡ʃe	-0.30103
-2.6580524	hêʔhemɨ̃̀	-0.30103
-2.6580524	t͡ʃe*ero	-0.30103
-2.6580524	ɾàɲʲá	-0.30103
-2.6580524	oˀnona	-0.30103
-2.6580524	ka*a	-0.30103
-2.6580524	korɨmɨ	-0.30103
-2.6580524	kueˀkomɨ̃̀	-0.30103
-2.6580524	mɨ́òɲʲó	-0.30103
-2.6580524	ɲ̥ʲàtʰá	-0.30103
-2.6580524	hǎː-cɨ̂-sósìkɨ́-m	-0.30103
-2.6580524	nɨ̃ˀkemɨ̃	-0.30103
-2.6580524	sàí-mɨ̀	-0.30103
-2.6580524	ɾàɲʲá-péò-mɨ̀	-0.30103
-2.6580524	kʰùkʰúcè	-0.30103
-2.6580524	mìkʰá̰pɨ̀	-0.30103
-2.6580524	iʔse	-0.30103
-2.6580524	hõˀhomɨ̃	-0.30103
-2.6580524	nèˀnè-máˀ-mɨ̀	-0.30103
-2.6580524	áˀsò-á	-0.30103
-2.6580524	sisi*a	-0.30103
-2.6580524	mǎːɦàɲʲé	-0.30103
-2.6580524	cʲókʰò-á	-0.30103
-2.6580524	sèsé	-0.30103
-2.6580524	kʰáì-ɲʲé	-0.30103
-2.6580524	têʔtʰerɨ	-0.30103
-2.6580524	tʰóà-pɨ́	-0.30103
-2.6580524	cʲácʲà-wàʔí	-0.30103
-2.6580524	mǎː-kâː	-0.30103
-2.6580524	poo	-0.30103
-2.6580524	βèˀβɨ́	-0.30103
-2.6580524	siˀremo	-0.30103
-2.6580524	ɲ̥áɲ̥òmɨ̃̀	-0.30103
-2.6580524	hà*ɨ́	-0.30103
-2.6580524	ɲʲáː-ɦɨ̀ʔɨ́	-0.30103
-2.6580524	ĩ*i	-0.30103
-2.6580524	hà*áɲɨ́	-0.30103
-2.6580524	à̀pè-má-mɨ̀	-0.30103
-2.6580524	β̞eʔse	-0.30103
-2.6580524	hohomɨ̃	-0.30103
-2.6580524	ìká-mɨ́	-0.30103
-2.6580524	nè*é-ɲʲù-màˀ-mɨ̀	-0.30103
-2.6580524	kõsa	-0.30103
-2.6580524	kʰôː-wɨ́	-0.30103
-2.6580524	hàʔó	-0.30103
-2.6580524	βẽβeɲɨ	-0.30103
-2.6580524	sìsó-mɨ̀	-0.30103
-2.6580524	ɸèˀnémɨ̃̀	-0.30103
-2.6580524	kǎːmàmó	-0.30103
-2.6580524	tʰõʔkamɨ	-0.30103
-2.6580524	peˀrumɨ̃̀	-0.30103
-2.6580524	at͡ʃo	-0.30103
-2.6580524	ásímàká-pǎː-mɨ̀	-0.30103
-2.6580524	aˀt͡ʃo	-0.30103
-2.6580524	mǎː-pɨ̀-á	-0.30103
-2.6580524	t͡ʃa*i	-0.30103
-2.6580524	kã*amɨ̀	-0.30103
-2.6580524	mìmí	-0.30103
-2.6580524	t͡ʃeˀt͡ʃoˀt͡ʃe	-0.30103
-2.6580524	néàtʰó	-0.30103
-2.6580524	ʰɲáàɲhu*u	-0.30103
-2.6580524	ɨ́mɨ̀ɨ́	-0.30103
-2.6580524	tʰòá	-0.30103
-2.6580524	ot͡ʃo-siˀβi	-0.30103
-2.6580524	ɲʲâː-ŋʲé	-0.30103
-2.6580524	ɲaˀse	-0.30103
-2.6580524	kunare*a	-0.30103
-2.6580524	kɨ̀náβàɦɨ́	-0.30103
-2.6580524	kã:	-0.30103
-2.6580524	kòsákǎː	-0.30103
-2.6580524	aˀso	-0.30103
-2.6580524	ápè-ɨ̀á-mà̰-mɨ̀	-0.30103
-2.6580524	ɨ̀ɦá-cʲáì-wà	-0.30103
-2.6580524	í-kʰôː-wɨ́	-0.30103
-2.6580524	nèˀnè-ɲʲé	-0.30103
-2.6580524	suĩˀsuemɨ̃	-0.30103
-2.6580524	t͡ʃa*oo	-0.30103
-2.6580524	à̰pémɨ̃̀	-0.30103
-2.6580524	nàˀsó	-0.30103
-2.6580524	cʲóʔò-ɲʲú	-0.30103
-2.6580524	ɲase	-0.30103
-2.6580524	cɨ́ɨɨ̀mà̰mɨ̃̀	-0.30103
-2.6580524	wíˀtʰò-kʰá	-0.30103
-2.6580524	ri*homo	-0.30103
-2.6580524	ɲʲâː-ɳʲè	-0.30103
-2.6580524	àːɨ́	-0.30103
-2.6580524	kʰàt́a	-0.30103
-2.6580524	pítʰò-mé	-0.30103
-2.6580524	àsósàíβɨ̀	-0.30103
-2.6580524	màʔá	-0.30103
-2.6580524	kʰùkʰú-mɨ̀	-0.30103
-2.6580524	ka*imɨ̃̀	-0.30103
-2.6580524	àú-ɦɨ̀ʔɨ́	-0.30103
-2.6580524	kunareaβa	-0.30103
-2.6580524	asireˀre	-0.30103
-2.6580524	ôː-pɨ́	-0.30103
-2.6580524	t͡ʃɨ̃ʔt͡ʃɨ	-0.30103
-2.6580524	t͡ʃaˀt͡ʃomɨ̃̀	-0.30103
-2.6580524	nàsó	-0.30103
-2.6580524	maˀɲa	-0.30103
-2.6580524	há*à-kʰôː-wɨ́	-0.30103
-2.6580524	βãˀβamɨ̃̀	-0.30103
-2.6580524	ɲʲáː-kʰɨ̀	-0.30103
-2.6580524	tʰòtʰá-m	-0.30103
-2.6580524	ápè-ɲʲú	-0.30103
-2.6580524	tʰoʔoro*o	-0.30103
-2.6580524	t͡ʃoˀheo	-0.30103
-2.6580524	ʰmaˀtɨ*karɨ	-0.30103
-2.6580524	wu*e	-0.30103
-2.6580524	ro*imɨ̃	-0.30103
-2.6580524	βiˀto	-0.30103
-2.6580524	òkʰó	-0.30103
-2.6580524	t͡ʃoˀt͡ʃomɨ̃	-0.30103
-2.6580524	eosẽ*e	-0.30103
-2.6580524	o*et͡ʃo	-0.30103
-2.6580524	uˀt͡ʃao	-0.30103
-2.6580524	kʰò̰mà̰néɦɨ̰́*ɨ̀	-0.30103
-2.6580524	kòˀɦí	-0.30103
-2.6580524	tʰòtʰácḛ̀	-0.30103
-2.6580524	sù̀kʰí-kʰàː	-0.30103
-2.6580524	t͡ʃã*umɨ	-0.30103
-2.6580524	t͡ʃòkòˀʰɲà	-0.30103
-2.6580524	poˀnɨmɨ	-0.30103
-2.6580524	pi*a	-0.30103
-2.6580524	t͡ʃa*o	-0.30103
-2.6580524	mìʔá	-0.30103
-2.6580524	nè*é-ɲʲù	-0.30103
-2.6580524	ǒː	-0.30103
-2.6580524	maˀʔkarɨ	-0.30103
-2.6580524	sòˀtʰó	-0.30103
-2.6580524	sĩ*uɲɨ̃̀	-0.30103
-2.6580524	páì-ɨ́	-0.30103
-2.6580524	míàɲʲé	-0.30103
-2.6580524	ka	-0.30103
-2.6580524	hĩˀtu	-0.30103
-2.6580524	ɸáàcé	-0.30103

\2-grams:
-0.60015535	t͡ʃɨ́òpí </s>	0
-0.002857171	<s> cɨ̀kɨ́nà	-2.1818435
-2.4171567	ìká-mè cɨ̀kɨ́nà	-0.30103
-0.59921443	cɨ̀kɨ́nà ìká-mè	-0.30103
-2.4171567	ìká-mè ìká-mè	-0.30103
-2.4838345	ìká-mè po'o	-0.30103
-0.30339363	cɨ̀kɨ́nà kòrèbàhɨ́	-0.30103
-0.599198	ìká-mè kòrèbàhɨ́	-0.30103
-0.12651308	po'o kòrèbàhɨ́	-0.30103
-2.1868987	kòrèbàhɨ́ kòrèbàhɨ́	-0.30103
-0.30339363	t͡ʃɨ́òpí kòrèbàhɨ́	-0.30103
-0.12651308	t͡ʃio kòrèbàhɨ́	-0.30103
-0.12651308	piˀnimo kòrèbàhɨ́	-0.30103
-0.12651308	có*òcé kòrèbàhɨ́	-0.30103
-0.12651308	ɨ*ɨmɨ̃ kòrèbàhɨ́	-0.30103
-0.12651308	íè kòrèbàhɨ́	-0.30103
-0.12651308	sìɦó-pɨ̀ kòrèbàhɨ́	-0.30103
-0.12651308	kaimɨ̃̀ kòrèbàhɨ́	-0.30103
-0.12651308	à*só kòrèbàhɨ́	-0.30103
-0.12651308	nèˀné-mɨ̀ kòrèbàhɨ́	-0.30103
-0.12651308	t͡ʃãˀsamɨ̃̀ kòrèbàhɨ́	-0.30103
-0.12651308	t͡ʃã*o kòrèbàhɨ́	-0.30103
-0.12651308	cʲóʔó-mɨ̀ kòrèbàhɨ́	-0.30103
-0.12651308	sɨ̃sɨ kòrèbàhɨ́	-0.30103
-0.12651308	kõˀsa kòrèbàhɨ́	-0.30103
-0.12651308	àpè-cʲé kòrèbàhɨ́	-0.30103
-0.12651308	hèˀná kòrèbàhɨ́	-0.30103
-0.12651308	pia kòrèbàhɨ́	-0.30103
-0.12651308	oˀromɨ̃ kòrèbàhɨ́	-0.30103
-0.12651308	u*utĩˀkirɨ kòrèbàhɨ́	-0.30103
-0.12651308	tʰòɲ̥ʲò-ɲʲé kòrèbàhɨ́	-0.30103
-0.12651308	ìnsí kòrèbàhɨ́	-0.30103
-0.12651308	t͡ʃiimo kòrèbàhɨ́	-0.30103
-0.12651308	kaa kòrèbàhɨ́	-0.30103
-0.12651308	ãˀkapɨ kòrèbàhɨ́	-0.30103
-0.12651308	kónsàá kòrèbàhɨ́	-0.30103
-0.12651308	kʰóˀkʰó-mà̰-mɨ̀ kòrèbàhɨ́	-0.30103
-0.12651308	ho*e kòrèbàhɨ́	-0.30103
-0.12651308	àɨ́ kòrèbàhɨ́	-0.30103
-0.12651308	hu'epɨ̃ kòrèbàhɨ́	-0.30103
-0.12651308	muˀkamɨ̃ kòrèbàhɨ́	-0.30103
-0.12651308	pǎːmɨ̃̀ kòrèbàhɨ́	-0.30103
-0.12651308	tʰâːɲʲè kòrèbàhɨ́	-0.30103
-0.12651308	cʲɨ̌ː-mɨ̀ kòrèbàhɨ́	-0.30103
-0.12651308	mǎː kòrèbàhɨ́	-0.30103
-0.12651308	t͡ʃɨ̀í kòrèbàhɨ́	-0.30103
-0.12651308	pãʔĩ kòrèbàhɨ́	-0.30103
-0.12651308	ɸèémɨ̃̀ kòrèbàhɨ́	-0.30103
-0.12651308	cʲô-ɦɨ́*ɨ̀ kòrèbàhɨ́	-0.30103
-0.12651308	t͡ʃi*ime kòrèbàhɨ́	-0.30103
-0.12651308	t͡ʃãumɨ̃̀ kòrèbàhɨ́	-0.30103
-0.12651308	ápè-ɦáˀ-mɨ̀ kòrèbàhɨ́	-0.30103
-0.12651308	cʲɨ̂-ːsósìkʰà-m kòrèbàhɨ́	-0.30103
-0.12651308	ũkupiramɨ̃ kòrèbàhɨ́	-0.30103
-0.12651308	ɲaʔuɲaʔumɨ̃̀ kòrèbàhɨ́	-0.30103
-0.12651308	t͡ʃãsamɨ̃̀ kòrèbàhɨ́	-0.30103
-0.12651308	kátà-pɨ́ kòrèbàhɨ́	-0.30103
-0.12651308	sìɦó-pɨ̀-á kòrèbàhɨ́	-0.30103
-0.12651308	kòhí kòrèbàhɨ́	-0.30103
-0.12651308	t͡ʃa*opo kòrèbàhɨ́	-0.30103
-0.12651308	t͡ʃĩ*õ kòrèbàhɨ́	-0.30103
-0.12651308	hɨ̀tʰɨ́ kòrèbàhɨ́	-0.30103
-0.12651308	sɨ̃ʔsɨ kòrèbàhɨ́	-0.30103
-0.12651308	nè*é-màˀ-mɨ̀ kòrèbàhɨ́	-0.30103
-0.12651308	tʰàɾá kòrèbàhɨ́	-0.30103
-0.12651308	maˀʰɲoko kòrèbàhɨ́	-0.30103
-0.12651308	ísḭ̀-pɨ́ kòrèbàhɨ́	-0.30103
-0.12651308	kʰùtʰù-máˀ-mɨ̀ kòrèbàhɨ́	-0.30103
-0.12651308	ɨ́ɦà-wɨ́ kòrèbàhɨ́	-0.30103
-0.12651308	pà*í-mɨ̀ kòrèbàhɨ́	-0.30103
-0.12651308	pìtʰó kòrèbàhɨ́	-0.30103
-0.12651308	hàˀkɨ́ kòrèbàhɨ́	-0.30103
-0.12651308	wèkʰɨ́ kòrèbàhɨ́	-0.30103
-0.12651308	rèʔómɨ̃̀ kòrèbàhɨ́	-0.30103
-0.12651308	ôːˀ-wɨ́ kòrèbàhɨ́	-0.30103
-0.12651308	siˀsi*a kòrèbàhɨ́	-0.30103
-0.12651308	cʲókʰò-ɲʲá kòrèbàhɨ́	-0.30103
-0.12651308	kaβaˀna kòrèbàhɨ́	-0.30103
-0.12651308	t͡ʃot͡ʃo kòrèbàhɨ́	-0.30103
-0.12651308	tʰáɾà-pɨ́ kòrèbàhɨ́	-0.30103
-0.12651308	ěː-mɨ̀ kòrèbàhɨ́	-0.30103
-0.12651308	hueˀpɨ̃ kòrèbàhɨ́	-0.30103
-0.12651308	áì-ʔó kòrèbàhɨ́	-0.30103
-0.12651308	áì-pá kòrèbàhɨ́	-0.30103
-0.12651308	kʰàí-mɨ̀ kòrèbàhɨ́	-0.30103
-0.12651308	eamɨ̃̀ kòrèbàhɨ́	-0.30103
-0.12651308	ko*ɨmɨ̃ kòrèbàhɨ́	-0.30103
-0.12651308	kʰòmáɲè kòrèbàhɨ́	-0.30103
-0.12651308	à*í kòrèbàhɨ́	-0.30103
-0.12651308	ũˀku kòrèbàhɨ́	-0.30103
-0.12651308	koɨo kòrèbàhɨ́	-0.30103
-0.12651308	wìtʰó kòrèbàhɨ́	-0.30103
-0.12651308	ponɨmɨ kòrèbàhɨ́	-0.30103
-0.12651308	o*a kòrèbàhɨ́	-0.30103
-0.12651308	ìká-mó kòrèbàhɨ́	-0.30103
-0.12651308	t͡ʃai kòrèbàhɨ́	-0.30103
-0.12651308	e*amɨ̃̀ kòrèbàhɨ́	-0.30103
-0.12651308	ápè-máˀ-m kòrèbàhɨ́	-0.30103
-0.12651308	ihaˀt͡ʃe kòrèbàhɨ́	-0.30103
-0.12651308	hêʔhemɨ̃̀ kòrèbàhɨ́	-0.30103
-0.12651308	t͡ʃe*ero kòrèbàhɨ́	-0.30103
-0.12651308	ɾàɲʲá kòrèbàhɨ́	-0.30103
-0.12651308	oˀnona kòrèbàhɨ́	-0.30103
-0.12651308	ka*a kòrèbàhɨ́	-0.30103
-0.12651308	korɨmɨ kòrèbàhɨ́	-0.30103
-0.12651308	kueˀkomɨ̃̀ kòrèbàhɨ́	-0.30103
-0.12651308	mɨ́òɲʲó kòrèbàhɨ́	-0.30103
-0.12651308	ɲ̥ʲàtʰá kòrèbàhɨ́	-0.30103
-0.12651308	hǎː-cɨ̂-sósìkɨ́-m kòrèbàhɨ́	-0.30103
-0.12651308	nɨ̃ˀkemɨ̃ kòrèbàhɨ́	-0.30103
-0.12651308	sàí-mɨ̀ kòrèbàhɨ́	-0.30103
-0.12651308	ɾàɲʲá-péò-mɨ̀ kòrèbàhɨ́	-0.30103
-0.12651308	kʰùkʰúcè kòrèbàhɨ́	-0.30103
-0.12651308	mìkʰá̰pɨ̀ kòrèbàhɨ́	-0.30103
-0.12651308	iʔse kòrèbàhɨ́	-0.30103
-0.12651308	hõˀhomɨ̃ kòrèbàhɨ́	-0.30103
-0.12651308	nèˀnè-máˀ-mɨ̀ kòrèbàhɨ́	-0.30103
-0.12651308	áˀsò-á kòrèbàhɨ́	-0.30103
-0.12651308	sisi*a kòrèbàhɨ́	-0.30103
-0.12651308	mǎːɦàɲʲé kòrèbàhɨ́	-0.30103
-0.12651308	cʲókʰò-á kòrèbàhɨ́	-0.30103
-0.12651308	sèsé kòrèbàhɨ́	-0.30103
-0.12651308	kʰáì-ɲʲé kòrèbàhɨ́	-0.30103
-0.12651308	têʔtʰerɨ kòrèbàhɨ́	-0.30103
-0.12651308	tʰóà-pɨ́ kòrèbàhɨ́	-0.30103
-0.12651308	cʲácʲà-wàʔí kòrèbàhɨ́	-0.30103
-0.12651308	mǎː-kâː kòrèbàhɨ́	-0.30103
-0.12651308	poo kòrèbàhɨ́	-0.30103
-0.12651308	βèˀβɨ́ kòrèbàhɨ́	-0.30103
-0.12651308	siˀremo kòrèbàhɨ́	-0.30103
-0.12651308	ɲ̥áɲ̥òmɨ̃̀ kòrèbàhɨ́	-0.30103
-0.12651308	hà*ɨ́ kòrèbàhɨ́	-0.30103
-0.12651308	ɲʲáː-ɦɨ̀ʔɨ́ kòrèbàhɨ́	-0.30103
-0.12651308	ĩ*i kòrèbàhɨ́	-0.30103
-0.12651308	hà*áɲɨ́ kòrèbàhɨ́	-0.30103
-0.12651308	à̀pè-má-mɨ̀ kòrèbàhɨ́	-0.30103
-0.12651308	β̞eʔse kòrèbàhɨ́	-0.30103
-0.12651308	hohomɨ̃ kòrèbàhɨ́	-0.30103
-0.12651308	ìká-mɨ́ kòrèbàhɨ́	-0.30103
-0.12651308	nè*é-ɲʲù-màˀ-mɨ̀ kòrèbàhɨ́	-0.30103
-0.12651308	kõsa kòrèbàhɨ́	-0.30103
-0.12651308	kʰôː-wɨ́ kòrèbàhɨ́	-0.30103
-0.12651308	hàʔó kòrèbàhɨ́	-0.30103
-0.12651308	βẽβeɲɨ kòrèbàhɨ́	-0.30103
-0.12651308	sìsó-mɨ̀ kòrèbàhɨ́	-0.30103
-0.12651308	ɸèˀnémɨ̃̀ kòrèbàhɨ́	-0.30103
-0.12651308	kǎːmàmó kòrèbàhɨ́	-0.30103
-0.12651308	tʰõʔkamɨ kòrèbàhɨ́	-0.30103
-0.12651308	peˀrumɨ̃̀ kòrèbàhɨ́	-0.30103
-0.12651308	at͡ʃo kòrèbàhɨ́	-0.30103
-0.12651308	ásímàká-pǎː-mɨ̀ kòrèbàhɨ́	-0.30103
-0.12651308	aˀt͡ʃo kòrèbàhɨ́	-0.30103
-0.12651308	mǎː-pɨ̀-á kòrèbàhɨ́	-0.30103
-0.12651308	t͡ʃa*i kòrèbàhɨ́	-0.30103
-0.12651308	kã*amɨ̀ kòrèbàhɨ́	-0.30103
-0.12651308	mìmí kòrèbàhɨ́	-0.30103
-0.12651308	t͡ʃeˀt͡ʃoˀt͡ʃe kòrèbàhɨ́	-0.30103
-0.12651308	néàtʰó kòrèbàhɨ́	-0.30103
-0.12651308	ʰɲáàɲhu*u kòrèbàhɨ́	-0.30103
-0.12651308	ɨ́mɨ̀ɨ́ kòrèbàhɨ́	-0.30103
-0.12651308	tʰòá kòrèbàhɨ́	-0.30103
-0.12651308	ot͡ʃo-siˀβi kòrèbàhɨ́	-0.30103
-0.12651308	ɲʲâː-ŋʲé kòrèbàhɨ́	-0.30103
-0.12651308	ɲaˀse kòrèbàhɨ́	-0.30103
-0.12651308	kunare*a kòrèbàhɨ́	-0.30103
-0.12651308	kɨ̀náβàɦɨ́ kòrèbàhɨ́	-0.30103
-0.12651308	kã: kòrèbàhɨ́	-0.30103
-0.12651308	kòsákǎː kòrèbàhɨ́	-0.30103
-0.12651308	aˀso kòrèbàhɨ́	-0.30103
-0.12651308	ápè-ɨ̀á-mà̰-mɨ̀ kòrèbàhɨ́	-0.30103
-0.12651308	ɨ̀ɦá-cʲáì-wà kòrèbàhɨ́	-0.30103
-0.12651308	í-kʰôː-wɨ́ kòrèbàhɨ́	-0.30103
-0.12651308	nèˀnè-ɲʲé kòrèbàhɨ́	-0.30103
-0.12651308	suĩˀsuemɨ̃ kòrèbàhɨ́	-0.30103
-0.12651308	t͡ʃa*oo kòrèbàhɨ́	-0.30103
-0.12651308	à̰pémɨ̃̀ kòrèbàhɨ́	-0.30103
-0.12651308	nàˀsó kòrèbàhɨ́	-0.30103
-0.12651308	cʲóʔò-ɲʲú kòrèbàhɨ́	-0.30103
-0.12651308	ɲase kòrèbàhɨ́	-0.30103
-0.12651308	cɨ́ɨɨ̀mà̰mɨ̃̀ kòrèbàhɨ́	-0.30103
-0.12651308	wíˀtʰò-kʰá kòrèbàhɨ́	-0.30103
-0.12651308	ri*homo kòrèbàhɨ́	-0.30103
-0.12651308	ɲʲâː-ɳʲè kòrèbàhɨ́	-0.30103
-0.12651308	àːɨ́ kòrèbàhɨ́	-0.30103
-0.12651308	kʰàt́a kòrèbàhɨ́	-0.30103
-0.12651308	pítʰò-mé kòrèbàhɨ́	-0.30103
-0.12651308	àsósàíβɨ̀ kòrèbàhɨ́	-0.30103
-0.12651308	màʔá kòrèbàhɨ́	-0.30103
-0.12651308	kʰùkʰú-mɨ̀ kòrèbàhɨ́	-0.30103
-0.12651308	ka*imɨ̃̀ kòrèbàhɨ́	-0.30103
-0.12651308	àú-ɦɨ̀ʔɨ́ kòrèbàhɨ́	-0.30103
-0.12651308	kunareaβa kòrèbàhɨ́	-0.30103
-0.12651308	asireˀre kòrèbàhɨ́	-0.30103
-0.12651308	ôː-pɨ́ kòrèbàhɨ́	-0.30103
-0.12651308	t͡ʃɨ̃ʔt͡ʃɨ kòrèbàhɨ́	-0.30103
-0.12651308	t͡ʃaˀt͡ʃomɨ̃̀ kòrèbàhɨ́	-0.30103
-0.12651308	nàsó kòrèbàhɨ́	-0.30103
-0.12651308	maˀɲa kòrèbàhɨ́	-0.30103
-0.12651308	há*à-kʰôː-wɨ́ kòrèbàhɨ́	-0.30103
-0.12651308	βãˀβamɨ̃̀ kòrèbàhɨ́	-0.30103
-0.12651308	ɲʲáː-kʰɨ̀ kòrèbàhɨ́	-0.30103
-0.12651308	tʰòtʰá-m kòrèbàhɨ́	-0.30103
-0.12651308	ápè-ɲʲú kòrèbàhɨ́	-0.30103
-0.12651308	tʰoʔoro*o kòrèbàhɨ́	-0.30103
-0.12651308	t͡ʃoˀheo kòrèbàhɨ́	-0.30103
-0.12651308	ʰmaˀtɨ*karɨ kòrèbàhɨ́	-0.30103
-0.12651308	wu*e kòrèbàhɨ́	-0.30103
-0.12651308	ro*imɨ̃ kòrèbàhɨ́	-0.30103
-0.12651308	βiˀto kòrèbàhɨ́	-0.30103
-0.12651308	òkʰó kòrèbàhɨ́	-0.30103
-0.12651308	t͡ʃoˀt͡ʃomɨ̃ kòrèbàhɨ́	-0.30103
-0.12651308	eosẽ*e kòrèbàhɨ́	-0.30103
-0.12651308	o*et͡ʃo kòrèbàhɨ́	-0.30103
-0.12651308	uˀt͡ʃao kòrèbàhɨ́	-0.30103
-0.12651308	kʰò̰mà̰néɦɨ̰́*ɨ̀ kòrèbàhɨ́	-0.30103
-0.12651308	kòˀɦí kòrèbàhɨ́	-0.30103
-0.12651308	tʰòtʰácḛ̀ kòrèbàhɨ́	-0.30103
-0.12651308	sù̀kʰí-kʰàː kòrèbàhɨ́	-0.30103
-0.12651308	t͡ʃã*umɨ kòrèbàhɨ́	-0.30103
-0.12651308	t͡ʃòkòˀʰɲà kòrèbàhɨ́	-0.30103
-0.12651308	poˀnɨmɨ kòrèbàhɨ́	-0.30103
-0.12651308	pi*a kòrèbàhɨ́	-0.30103
-0.12651308	t͡ʃa*o kòrèbàhɨ́	-0.30103
-0.12651308	mìʔá kòrèbàhɨ́	-0.30103
-0.12651308	nè*é-ɲʲù kòrèbàhɨ́	-0.30103
-0.12651308	ǒː kòrèbàhɨ́	-0.30103
-0.12651308	maˀʔkarɨ kòrèbàhɨ́	-0.30103
-0.12651308	sòˀtʰó kòrèbàhɨ́	-0.30103
-0.12651308	sĩ*uɲɨ̃̀ kòrèbàhɨ́	-0.30103
-0.12651308	páì-ɨ́ kòrèbàhɨ́	-0.30103
-0.12651308	míàɲʲé kòrèbàhɨ́	-0.30103
-0.12651308	ka kòrèbàhɨ́	-0.30103
-0.12651308	hĩˀtu kòrèbàhɨ́	-0.30103
-0.12651308	ɸáàcé kòrèbàhɨ́	-0.30103
-2.4171567	ìká-mè t͡ʃɨ́òpí	-0.30103
-0.0047546513	kòrèbàhɨ́ t͡ʃɨ́òpí	-2.1818435
-2.4838345	ìká-mè t͡ʃio	-0.30103
-2.4838345	ìká-mè piˀnimo	-0.30103
-2.4838345	ìká-mè có*òcé	-0.30103
-2.4838345	ìká-mè ɨ*ɨmɨ̃	-0.30103
-2.4838345	ìká-mè íè	-0.30103
-2.4838345	ìká-mè sìɦó-pɨ̀	-0.30103
-2.4838345	ìká-mè kaimɨ̃̀	-0.30103
-2.4838345	ìká-mè à*só	-0.30103
-2.4838345	ìká-mè nèˀné-mɨ̀	-0.30103
-2.4838345	ìká-mè t͡ʃãˀsamɨ̃̀	-0.30103
-2.4838345	ìká-mè t͡ʃã*o	-0.30103
-2.4838345	ìká-mè cʲóʔó-mɨ̀	-0.30103
-2.4838345	ìká-mè sɨ̃sɨ	-0.30103
-2.4838345	ìká-mè kõˀsa	-0.30103
-2.4838345	ìká-mè àpè-cʲé	-0.30103
-2.4838345	ìká-mè hèˀná	-0.30103
-2.4838345	ìká-mè pia	-0.30103
-2.4838345	ìká-mè oˀromɨ̃	-0.30103
-2.4838345	ìká-mè u*utĩˀkirɨ	-0.30103
-2.4838345	ìká-mè tʰòɲ̥ʲò-ɲʲé	-0.30103
-2.4838345	ìká-mè ìnsí	-0.30103
-2.4838345	ìká-mè t͡ʃiimo	-0.30103
-2.4838345	ìká-mè kaa	-0.30103
-2.4838345	ìká-mè ãˀkapɨ	-0.30103
-2.4838345	ìká-mè kónsàá	-0.30103
-2.4838345	ìká-mè kʰóˀkʰó-mà̰-mɨ̀	-0.30103
-2.4838345	ìká-mè ho*e	-0.30103
-2.4838345	ìká-mè àɨ́	-0.30103
-2.4838345	ìká-mè hu'epɨ̃	-0.30103
-2.4838345	ìká-mè muˀkamɨ̃	-0.30103
-2.4838345	ìká-mè pǎːmɨ̃̀	-0.30103
-2.4838345	ìká-mè tʰâːɲʲè	-0.30103
-2.4838345	ìká-mè cʲɨ̌ː-mɨ̀	-0.30103
-2.4838345	ìká-mè mǎː	-0.30103
-2.4838345	ìká-mè t͡ʃɨ̀í	-0.30103
-2.4838345	ìká-mè pãʔĩ	-0.30103
-2.4838345	ìká-mè ɸèémɨ̃̀	-0.30103
-2.4838345	ìká-mè cʲô-ɦɨ́*ɨ̀	-0.30103
-2.4838345	ìká-mè t͡ʃi*ime	-0.30103
-2.4838345	ìká-mè t͡ʃãumɨ̃̀	-0.30103
-2.4838345	ìká-mè ápè-ɦáˀ-mɨ̀	-0.30103
-2.4838345	ìká-mè cʲɨ̂-ːsósìkʰà-m	-0.30103
-2.4838345	ìká-mè ũkupiramɨ̃	-0.30103
-2.4838345	ìká-mè ɲaʔuɲaʔumɨ̃̀	-0.30103
-2.4838345	ìká-mè t͡ʃãsamɨ̃̀	-0.30103
-2.4838345	ìká-mè kátà-pɨ́	-0.30103
-2.4838345	ìká-mè sìɦó-pɨ̀-á	-0.30103
-2.4838345	ìká-mè kòhí	-0.30103
-2.4838345	ìká-mè t͡ʃa*opo	-0.30103
-2.4838345	ìká-mè t͡ʃĩ*õ	-0.30103
-2.4838345	ìká-mè hɨ̀tʰɨ́	-0.30103
-2.4838345	ìká-mè sɨ̃ʔsɨ	-0.30103
-2.4838345	ìká-mè nè*é-màˀ-mɨ̀	-0.30103
-2.4838345	ìká-mè tʰàɾá	-0.30103
-2.4838345	ìká-mè maˀʰɲoko	-0.30103
-2.4838345	ìká-mè ísḭ̀-pɨ́	-0.30103
-2.4838345	ìká-mè kʰùtʰù-máˀ-mɨ̀	-0.30103
-2.4838345	ìká-mè ɨ́ɦà-wɨ́	-0.30103
-2.4838345	ìká-mè pà*í-mɨ̀	-0.30103
-2.4838345	ìká-mè pìtʰó	-0.30103
-2.4838345	ìká-mè hàˀkɨ́	-0.30103
-2.4838345	ìká-mè wèkʰɨ́	-0.30103
-2.4838345	ìká-mè rèʔómɨ̃̀	-0.30103
-2.4838345	ìká-mè ôːˀ-wɨ́	-0.30103
-2.4838345	ìká-mè siˀsi*a	-0.30103
-2.4838345	ìká-mè cʲókʰò-ɲʲá	-0.30103
-2.4838345	ìká-mè kaβaˀna	-0.30103
-2.4838345	ìká-mè t͡ʃot͡ʃo	-0.30103
-2.4838345	ìká-mè tʰáɾà-pɨ́	-0.30103
-2.4838345	ìká-mè ěː-mɨ̀	-0.30103
-2.4838345	ìká-mè hueˀpɨ̃	-0.30103
-2.4838345	ìká-mè áì-ʔó	-0.30103
-2.4838345	ìká-mè áì-pá	-0.30103
-2.4838345	ìká-mè kʰàí-mɨ̀	-0.30103
-2.4838345	ìká-mè eamɨ̃̀	-0.30103
-2.4838345	ìká-mè ko*ɨmɨ̃	-0.30103
-2.4838345	ìká-mè kʰòmáɲè	-0.30103
-2.4838345	ìká-mè à*í	-0.30103
-2.4838345	ìká-mè ũˀku	-0.30103
-2.4838345	ìká-mè koɨo	-0.30103
-2.4838345	ìká-mè wìtʰó	-0.30103
-2.4838345	ìká-mè ponɨmɨ	-0.30103
-2.4838345	ìká-mè o*a	-0.30103
-2.4838345	ìká-mè ìká-mó	-0.30103
-2.4838345	ìká-mè t͡ʃai	-0.30103
-2.4838345	ìká-mè e*amɨ̃̀	-0.30103
-2.4838345	ìká-mè ápè-máˀ-m	-0.30103
-2.4838345	ìká-mè ihaˀt͡ʃe	-0.30103
-2.4838345	ìká-mè hêʔhemɨ̃̀	-0.30103
-2.4838345	ìká-mè t͡ʃe*ero	-0.30103
-2.4838345	ìká-mè ɾàɲʲá	-0.30103
-2.4838345	ìká-mè oˀnona	-0.30103
-2.4838345	ìká-mè ka*a	-0.30103
-2.4838345	ìká-mè korɨmɨ	-0.30103
-2.4838345	ìká-mè kueˀkomɨ̃̀	-0.30103
-2.4838345	ìká-mè mɨ́òɲʲó	-0.30103
-2.4838345	ìká-mè ɲ̥ʲàtʰá	-0.30103
-2.4838345	ìká-mè hǎː-cɨ̂-sósìkɨ́-m	-0.30103
-2.4838345	ìká-mè nɨ̃ˀkemɨ̃	-0.30103
-2.4838345	ìká-mè sàí-mɨ̀	-0.30103
-2.4838345	ìká-mè ɾàɲʲá-péò-mɨ̀	-0.30103
-2.4838345	ìká-mè kʰùkʰúcè	-0.30103
-2.4838345	ìká-mè mìkʰá̰pɨ̀	-0.30103
-2.4838345	ìká-mè iʔse	-0.30103
-2.4838345	ìká-mè hõˀhomɨ̃	-0.30103
-2.4838345	ìká-mè nèˀnè-máˀ-mɨ̀	-0.30103
-2.4838345	ìká-mè áˀsò-á	-0.30103
-2.4838345	ìká-mè sisi*a	-0.30103
-2.4838345	ìká-mè mǎːɦàɲʲé	-0.30103
-2.4838345	ìká-mè cʲókʰò-á	-0.30103
-2.4838345	ìká-mè sèsé	-0.30103
-2.4838345	ìká-mè kʰáì-ɲʲé	-0.30103
-2.4838345	ìká-mè têʔtʰerɨ	-0.30103
-2.4838345	ìká-mè tʰóà-pɨ́	-0.30103
-2.4838345	ìká-mè cʲácʲà-wàʔí	-0.30103
-2.4838345	ìká-mè mǎː-kâː	-0.30103
-2.4838345	ìká-mè poo	-0.30103
-2.4838345	ìká-mè βèˀβɨ́	-0.30103
-2.4838345	ìká-mè siˀremo	-0.30103
-2.4838345	ìká-mè ɲ̥áɲ̥òmɨ̃̀	-0.30103
-2.4838345	ìká-mè hà*ɨ́	-0.30103
-2.4838345	ìká-mè ɲʲáː-ɦɨ̀ʔɨ́	-0.30103
-2.4838345	ìká-mè ĩ*i	-0.30103
-2.4838345	ìká-mè hà*áɲɨ́	-0.30103
-2.4838345	ìká-mè à̀pè-má-mɨ̀	-0.30103
-2.4838345	ìká-mè β̞eʔse	-0.30103
-2.4838345	ìká-mè hohomɨ̃	-0.30103
-2.4838345	ìká-mè ìká-mɨ́	-0.30103
-2.4838345	ìká-mè nè*é-ɲʲù-màˀ-mɨ̀	-0.30103
-2.4838345	ìká-mè kõsa	-0.30103
-2.4838345	ìká-mè kʰôː-wɨ́	-0.30103
-2.4838345	ìká-mè hàʔó	-0.30103
-2.4838345	ìká-mè βẽβeɲɨ	-0.30103
-2.4838345	ìká-mè sìsó-mɨ̀	-0.30103
-2.4838345	ìká-mè ɸèˀnémɨ̃̀	-0.30103
-2.4838345	ìká-mè kǎːmàmó	-0.30103
-2.4838345	ìká-mè tʰõʔkamɨ	-0.30103
-2.4838345	ìká-mè peˀrumɨ̃̀	-0.30103
-2.4838345	ìká-mè at͡ʃo	-0.30103
-2.4838345	ìká-mè ásímàká-pǎː-mɨ̀	-0.30103
-2.4838345	ìká-mè aˀt͡ʃo	-0.30103
-2.4838345	ìká-mè mǎː-pɨ̀-á	-0.30103
-2.4838345	ìká-mè t͡ʃa*i	-0.30103
-2.4838345	ìká-mè kã*amɨ̀	-0.30103
-2.4838345	ìká-mè mìmí	-0.30103
-2.4838345	ìká-mè t͡ʃeˀt͡ʃoˀt͡ʃe	-0.30103
-2.4838345	ìká-mè néàtʰó	-0.30103
-2.4838345	ìká-mè ʰɲáàɲhu*u	-0.30103
-2.4838345	ìká-mè ɨ́mɨ̀ɨ́	-0.30103
-2.4838345	ìká-mè tʰòá	-0.30103
-2.4838345	ìká-mè ot͡ʃo-siˀβi	-0.30103
-2.4838345	ìká-mè ɲʲâː-ŋʲé	-0.30103
-2.4838345	ìká-mè ɲaˀse	-0.30103
-2.4838345	ìká-mè kunare*a	-0.30103
-2.4838345	ìká-mè kɨ̀náβàɦɨ́	-0.30103
-2.4838345	ìká-mè kã:	-0.30103
-2.4838345	ìká-mè kòsákǎː	-0.30103
-2.4838345	ìká-mè aˀso	-0.30103
-2.4838345	ìká-mè ápè-ɨ̀á-mà̰-mɨ̀	-0.30103
-2.4838345	ìká-mè ɨ̀ɦá-cʲáì-wà	-0.30103
-2.4838345	ìká-mè í-kʰôː-wɨ́	-0.30103
-2.4838345	ìká-mè nèˀnè-ɲʲé	-0.30103
-2.4838345	ìká-mè suĩˀsuemɨ̃	-0.30103
-2.4838345	ìká-mè t͡ʃa*oo	-0.30103
-2.4838345	ìká-mè à̰pémɨ̃̀	-0.30103
-2.4838345	ìká-mè nàˀsó	-0.30103
-2.4838345	ìká-mè cʲóʔò-ɲʲú	-0.30103
-2.4838345	ìká-mè ɲase	-0.30103
-2.4838345	ìká-mè cɨ́ɨɨ̀mà̰mɨ̃̀	-0.30103
-2.4838345	ìká-mè wíˀtʰò-kʰá	-0.30103
-2.4838345	ìká-mè ri*homo	-0.30103
-2.4838345	ìká-mè ɲʲâː-ɳʲè	-0.30103
-2.4838345	ìká-mè àːɨ́	-0.30103
-2.4838345	ìká-mè kʰàt́a	-0.30103
-2.4838345	ìká-mè pítʰò-mé	-0.30103
-2.4838345	ìká-mè àsósàíβɨ̀	-0.30103
-2.4838345	ìká-mè màʔá	-0.30103
-2.4838345	ìká-mè kʰùkʰú-mɨ̀	-0.30103
-2.4838345	ìká-mè ka*imɨ̃̀	-0.30103
-2.4838345	ìká-mè àú-ɦɨ̀ʔɨ́	-0.30103
-2.4838345	ìká-mè kunareaβa	-0.30103
-2.4838345	ìká-mè asireˀre	-0.30103
-2.4838345	ìká-mè ôː-pɨ́	-0.30103
-2.4838345	ìká-mè t͡ʃɨ̃ʔt͡ʃɨ	-0.30103
-2.4838345	ìká-mè t͡ʃaˀt͡ʃomɨ̃̀	-0.30103
-2.4838345	ìká-mè nàsó	-0.30103
-2.4838345	ìká-mè maˀɲa	-0.30103
-2.4838345	ìká-mè há*à-kʰôː-wɨ́	-0.30103
-2.4838345	ìká-mè βãˀβamɨ̃̀	-0.30103
-2.4838345	ìká-mè ɲʲáː-kʰɨ̀	-0.30103
-2.4838345	ìká-mè tʰòtʰá-m	-0.30103
-2.4838345	ìká-mè ápè-ɲʲú	-0.30103
-2.4838345	ìká-mè tʰoʔoro*o	-0.30103
-2.4838345	ìká-mè t͡ʃoˀheo	-0.30103
-2.4838345	ìká-mè ʰmaˀtɨ*karɨ	-0.30103
-2.4838345	ìká-mè wu*e	-0.30103
-2.4838345	ìká-mè ro*imɨ̃	-0.30103
-2.4838345	ìká-mè βiˀto	-0.30103
-2.4838345	ìká-mè òkʰó	-0.30103
-2.4838345	ìká-mè t͡ʃoˀt͡ʃomɨ̃	-0.30103
-2.4838345	ìká-mè eosẽ*e	-0.30103
-2.4838345	ìká-mè o*et͡ʃo	-0.30103
-2.4838345	ìká-mè uˀt͡ʃao	-0.30103
-2.4838345	ìká-mè kʰò̰mà̰néɦɨ̰́*ɨ̀	-0.30103
-2.4838345	ìká-mè kòˀɦí	-0.30103
-2.4838345	ìká-mè tʰòtʰácḛ̀	-0.30103
-2.4838345	ìká-mè sù̀kʰí-kʰàː	-0.30103
-2.4838345	ìká-mè t͡ʃã*umɨ	-0.30103
-2.4838345	ìká-mè t͡ʃòkòˀʰɲà	-0.30103
-2.4838345	ìká-mè poˀnɨmɨ	-0.30103
-2.4838345	ìká-mè pi*a	-0.30103
-2.4838345	ìká-mè t͡ʃa*o	-0.30103
-2.4838345	ìká-mè mìʔá	-0.30103
-2.4838345	ìká-mè nè*é-ɲʲù	-0.30103
-2.4838345	ìká-mè ǒː	-0.30103
-2.4838345	ìká-mè maˀʔkarɨ	-0.30103
-2.4838345	ìká-mè sòˀtʰó	-0.30103
-2.4838345	ìká-mè sĩ*uɲɨ̃̀	-0.30103
-2.4838345	ìká-mè páì-ɨ́	-0.30103
-2.4838345	ìká-mè míàɲʲé	-0.30103
-2.4838345	ìká-mè ka	-0.30103
-2.4838345	ìká-mè hĩˀtu	-0.30103
-2.4838345	ìká-mè ɸáàcé	-0.30103

\3-grams:
-0.0021450487	kòrèbàhɨ́ t͡ʃɨ́òpí </s>
-2.386537	cɨ̀kɨ́nà ìká-mè cɨ̀kɨ́nà
-0.002143462	<s> cɨ̀kɨ́nà ìká-mè
-2.386537	cɨ̀kɨ́nà ìká-mè ìká-mè
-2.4163384	cɨ̀kɨ́nà ìká-mè po'o
-0.12572521	ìká-mè cɨ̀kɨ́nà kòrèbàhɨ́
-0.892724	cɨ̀kɨ́nà ìká-mè kòrèbàhɨ́
-0.20354608	ìká-mè ìká-mè kòrèbàhɨ́
-0.05866598	ìká-mè po'o kòrèbàhɨ́
-0.5964482	ìká-mè kòrèbàhɨ́ kòrèbàhɨ́
-0.12572521	ìká-mè t͡ʃɨ́òpí kòrèbàhɨ́
-0.05866598	ìká-mè t͡ʃio kòrèbàhɨ́
-0.05866598	ìká-mè piˀnimo kòrèbàhɨ́
-0.05866598	ìká-mè có*òcé kòrèbàhɨ́
-0.05866598	ìká-mè ɨ*ɨmɨ̃ kòrèbàhɨ́
-0.05866598	ìká-mè íè kòrèbàhɨ́
-0.05866598	ìká-mè sìɦó-pɨ̀ kòrèbàhɨ́
-0.05866598	ìká-mè kaimɨ̃̀ kòrèbàhɨ́
-0.05866598	ìká-mè à*só kòrèbàhɨ́
-0.05866598	ìká-mè nèˀné-mɨ̀ kòrèbàhɨ́
-0.05866598	ìká-mè t͡ʃãˀsamɨ̃̀ kòrèbàhɨ́
-0.05866598	ìká-mè t͡ʃã*o kòrèbàhɨ́
-0.05866598	ìká-mè cʲóʔó-mɨ̀ kòrèbàhɨ́
-0.05866598	ìká-mè sɨ̃sɨ kòrèbàhɨ́
-0.05866598	ìká-mè kõˀsa kòrèbàhɨ́
-0.05866598	ìká-mè àpè-cʲé kòrèbàhɨ́
-0.05866598	ìká-mè hèˀná kòrèbàhɨ́
-0.05866598	ìká-mè pia kòrèbàhɨ́
-0.05866598	ìká-mè oˀromɨ̃ kòrèbàhɨ́
-0.05866598	ìká-mè u*utĩˀkirɨ kòrèbàhɨ́
-0.05866598	ìká-mè tʰòɲ̥ʲò-ɲʲé kòrèbàhɨ́
-0.05866598	ìká-mè ìnsí kòrèbàhɨ́
-0.05866598	ìká-mè t͡ʃiimo kòrèbàhɨ́
-0.05866598	ìká-mè kaa kòrèbàhɨ́
-0.05866598	ìká-mè ãˀkapɨ kòrèbàhɨ́
-0.05866598	ìká-mè kónsàá kòrèbàhɨ́
-0.05866598	ìká-mè kʰóˀkʰó-mà̰-mɨ̀ kòrèbàhɨ́
-0.05866598	ìká-mè ho*e kòrèbàhɨ́
-0.05866598	ìká-mè àɨ́ kòrèbàhɨ́
-0.05866598	ìká-mè hu'epɨ̃ kòrèbàhɨ́
-0.05866598	ìká-mè muˀkamɨ̃ kòrèbàhɨ́
-0.05866598	ìká-mè pǎːmɨ̃̀ kòrèbàhɨ́
-0.05866598	ìká-mè tʰâːɲʲè kòrèbàhɨ́
-0.05866598	ìká-mè cʲɨ̌ː-mɨ̀ kòrèbàhɨ́
-0.05866598	ìká-mè mǎː kòrèbàhɨ́
-0.05866598	ìká-mè t͡ʃɨ̀í kòrèbàhɨ́
-0.05866598	ìká-mè pãʔĩ kòrèbàhɨ́
-0.05866598	ìká-mè ɸèémɨ̃̀ kòrèbàhɨ́
-0.05866598	ìká-mè cʲô-ɦɨ́*ɨ̀ kòrèbàhɨ́
-0.05866598	ìká-mè t͡ʃi*ime kòrèbàhɨ́
-0.05866598	ìká-mè t͡ʃãumɨ̃̀ kòrèbàhɨ́
-0.05866598	ìká-mè ápè-ɦáˀ-mɨ̀ kòrèbàhɨ́
-0.05866598	ìká-mè cʲɨ̂-ːsósìkʰà-m kòrèbàhɨ́
-0.05866598	ìká-mè ũkupiramɨ̃ kòrèbàhɨ́
-0.05866598	ìká-mè ɲaʔuɲaʔumɨ̃̀ kòrèbàhɨ́
-0.05866598	ìká-mè t͡ʃãsamɨ̃̀ kòrèbàhɨ́
-0.05866598	ìká-mè kátà-pɨ́ kòrèbàhɨ́
-0.05866598	ìká-mè sìɦó-pɨ̀-á kòrèbàhɨ́
-0.05866598	ìká-mè kòhí kòrèbàhɨ́
-0.05866598	ìká-mè t͡ʃa*opo kòrèbàhɨ́
-0.05866598	ìká-mè t͡ʃĩ*õ kòrèbàhɨ́
-0.05866598	ìká-mè hɨ̀tʰɨ́ kòrèbàhɨ́
-0.05866598	ìká-mè sɨ̃ʔsɨ kòrèbàhɨ́
-0.05866598	ìká-mè nè*é-màˀ-mɨ̀ kòrèbàhɨ́
-0.05866598	ìká-mè tʰàɾá kòrèbàhɨ́
-0.05866598	ìká-mè maˀʰɲoko kòrèbàhɨ́
-0.05866598	ìká-mè ísḭ̀-pɨ́ kòrèbàhɨ́
-0.05866598	ìká-mè kʰùtʰù-máˀ-mɨ̀ kòrèbàhɨ́
-0.05866598	ìká-mè ɨ́ɦà-wɨ́ kòrèbàhɨ́
-0.05866598	ìká-mè pà*í-mɨ̀ kòrèbàhɨ́
-0.05866598	ìká-mè pìtʰó kòrèbàhɨ́
-0.05866598	ìká-mè hàˀkɨ́ kòrèbàhɨ́
-0.05866598	ìká-mè wèkʰɨ́ kòrèbàhɨ́
-0.05866598	ìká-mè rèʔómɨ̃̀ kòrèbàhɨ́
-0.05866598	ìká-mè ôːˀ-wɨ́ kòrèbàhɨ́
-0.05866598	ìká-mè siˀsi*a kòrèbàhɨ́
-0.05866598	ìká-mè cʲókʰò-ɲʲá kòrèbàhɨ́
-0.05866598	ìká-mè kaβaˀna kòrèbàhɨ́
-0.05866598	ìká-mè t͡ʃot͡ʃo kòrèbàhɨ́
-0.05866598	ìká-mè tʰáɾà-pɨ́ kòrèbàhɨ́
-0.05866598	ìká-mè ěː-mɨ̀ kòrèbàhɨ́
-0.05866598	ìká-mè hueˀpɨ̃ kòrèbàhɨ́
-0.05866598	ìká-mè áì-ʔó kòrèbàhɨ́
-0.05866598	ìká-mè áì-pá kòrèbàhɨ́
-0.05866598	ìká-mè kʰàí-mɨ̀ kòrèbàhɨ́
-0.05866598	ìká-mè eamɨ̃̀ kòrèbàhɨ́
-0.05866598	ìká-mè ko*ɨmɨ̃ kòrèbàhɨ́
-0.05866598	ìká-mè kʰòmáɲè kòrèbàhɨ́
-0.05866598	ìká-mè à*í kòrèbàhɨ́
-0.05866598	ìká-mè ũˀku kòrèbàhɨ́
-0.05866598	ìká-mè koɨo kòrèbàhɨ́
-0.05866598	ìká-mè wìtʰó kòrèbàhɨ́
-0.05866598	ìká-mè ponɨmɨ kòrèbàhɨ́
-0.05866598	ìká-mè o*a kòrèbàhɨ́
-0.05866598	ìká-mè ìká-mó kòrèbàhɨ́
-0.05866598	ìká-mè t͡ʃai kòrèbàhɨ́
-0.05866598	ìká-mè e*amɨ̃̀ kòrèbàhɨ́
-0.05866598	ìká-mè ápè-máˀ-m kòrèbàhɨ́
-0.05866598	ìká-mè ihaˀt͡ʃe kòrèbàhɨ́
-0.05866598	ìká-mè hêʔhemɨ̃̀ kòrèbàhɨ́
-0.05866598	ìká-mè t͡ʃe*ero kòrèbàhɨ́
-0.05866598	ìká-mè ɾàɲʲá kòrèbàhɨ́
-0.05866598	ìká-mè oˀnona kòrèbàhɨ́
-0.05866598	ìká-mè ka*a kòrèbàhɨ́
-0.05866598	ìká-mè korɨmɨ kòrèbàhɨ́
-0.05866598	ìká-mè kueˀkomɨ̃̀ kòrèbàhɨ́
-0.05866598	ìká-mè mɨ́òɲʲó kòrèbàhɨ́
-0.05866598	ìká-mè ɲ̥ʲàtʰá kòrèbàhɨ́
-0.05866598	ìká-mè hǎː-cɨ̂-sósìkɨ́-m kòrèbàhɨ́
-0.05866598	ìká-mè nɨ̃ˀkemɨ̃ kòrèbàhɨ́
-0.05866598	ìká-mè sàí-mɨ̀ kòrèbàhɨ́
-0.05866598	ìká-mè ɾàɲʲá-péò-mɨ̀ kòrèbàhɨ́
-0.05866598	ìká-mè kʰùkʰúcè kòrèbàhɨ́
-0.05866598	ìká-mè mìkʰá̰pɨ̀ kòrèbàhɨ́
-0.05866598	ìká-mè iʔse kòrèbàhɨ́
-0.05866598	ìká-mè hõˀhomɨ̃ kòrèbàhɨ́
-0.05866598	ìká-mè nèˀnè-máˀ-mɨ̀ kòrèbàhɨ́
-0.05866598	ìká-mè áˀsò-á kòrèbàhɨ́
-0.05866598	ìká-mè sisi*a kòrèbàhɨ́
-0.05866598	ìká-mè mǎːɦàɲʲé kòrèbàhɨ́
-0.05866598	ìká-mè cʲókʰò-á kòrèbàhɨ́
-0.05866598	ìká-mè sèsé kòrèbàhɨ́
-0.05866598	ìká-mè kʰáì-ɲʲé kòrèbàhɨ́
-0.05866598	ìká-mè têʔtʰerɨ kòrèbàhɨ́
-0.05866598	ìká-mè tʰóà-pɨ́ kòrèbàhɨ́
-0.05866598	ìká-mè cʲácʲà-wàʔí kòrèbàhɨ́
-0.05866598	ìká-mè mǎː-kâː kòrèbàhɨ́
-0.05866598	ìká-mè poo kòrèbàhɨ́
-0.05866598	ìká-mè βèˀβɨ́ kòrèbàhɨ́
-0.05866598	ìká-mè siˀremo kòrèbàhɨ́
-0.05866598	ìká-mè ɲ̥áɲ̥òmɨ̃̀ kòrèbàhɨ́
-0.05866598	ìká-mè hà*ɨ́ kòrèbàhɨ́
-0.05866598	ìká-mè ɲʲáː-ɦɨ̀ʔɨ́ kòrèbàhɨ́
-0.05866598	ìká-mè ĩ*i kòrèbàhɨ́
-0.05866598	ìká-mè hà*áɲɨ́ kòrèbàhɨ́
-0.05866598	ìká-mè à̀pè-má-mɨ̀ kòrèbàhɨ́
-0.05866598	ìká-mè β̞eʔse kòrèbàhɨ́
-0.05866598	ìká-mè hohomɨ̃ kòrèbàhɨ́
-0.05866598	ìká-mè ìká-mɨ́ kòrèbàhɨ́
-0.05866598	ìká-mè nè*é-ɲʲù-màˀ-mɨ̀ kòrèbàhɨ́
-0.05866598	ìká-mè kõsa kòrèbàhɨ́
-0.05866598	ìká-mè kʰôː-wɨ́ kòrèbàhɨ́
-0.05866598	ìká-mè hàʔó kòrèbàhɨ́
-0.05866598	ìká-mè βẽβeɲɨ kòrèbàhɨ́
-0.05866598	ìká-mè sìsó-mɨ̀ kòrèbàhɨ́
-0.05866598	ìká-mè ɸèˀnémɨ̃̀ kòrèbàhɨ́
-0.05866598	ìká-mè kǎːmàmó kòrèbàhɨ́
-0.05866598	ìká-mè tʰõʔkamɨ kòrèbàhɨ́
-0.05866598	ìká-mè peˀrumɨ̃̀ kòrèbàhɨ́
-0.05866598	ìká-mè at͡ʃo kòrèbàhɨ́
-0.05866598	ìká-mè ásímàká-pǎː-mɨ̀ kòrèbàhɨ́
-0.05866598	ìká-mè aˀt͡ʃo kòrèbàhɨ́
-0.05866598	ìká-mè mǎː-pɨ̀-á kòrèbàhɨ́
-0.05866598	ìká-mè t͡ʃa*i kòrèbàhɨ́
-0.05866598	ìká-mè kã*amɨ̀ kòrèbàhɨ́
-0.05866598	ìká-mè mìmí kòrèbàhɨ́
-0.05866598	ìká-mè t͡ʃeˀt͡ʃoˀt͡ʃe kòrèbàhɨ́
-0.05866598	ìká-mè néàtʰó kòrèbàhɨ́
-0.05866598	ìká-mè ʰɲáàɲhu*u kòrèbàhɨ́
-0.05866598	ìká-mè ɨ́mɨ̀ɨ́ kòrèbàhɨ́
-0.05866598	ìká-mè tʰòá kòrèbàhɨ́
-0.05866598	ìká-mè ot͡ʃo-siˀβi kòrèbàhɨ́
-0.05866598	ìká-mè ɲʲâː-ŋʲé kòrèbàhɨ́
-0.05866598	ìká-mè ɲaˀse kòrèbàhɨ́
-0.05866598	ìká-mè kunare*a kòrèbàhɨ́
-0.05866598	ìká-mè kɨ̀náβàɦɨ́ kòrèbàhɨ́
-0.05866598	ìká-mè kã: kòrèbàhɨ́
-0.05866598	ìká-mè kòsákǎː kòrèbàhɨ́
-0.05866598	ìká-mè aˀso kòrèbàhɨ́
-0.05866598	ìká-mè ápè-ɨ̀á-mà̰-mɨ̀ kòrèbàhɨ́
-0.05866598	ìká-mè ɨ̀ɦá-cʲáì-wà kòrèbàhɨ́
-0.05866598	ìká-mè í-kʰôː-wɨ́ kòrèbàhɨ́
-0.05866598	ìká-mè nèˀnè-ɲʲé kòrèbàhɨ́
-0.05866598	ìká-mè suĩˀsuemɨ̃ kòrèbàhɨ́
-0.05866598	ìká-mè t͡ʃa*oo kòrèbàhɨ́
-0.05866598	ìká-mè à̰pémɨ̃̀ kòrèbàhɨ́
-0.05866598	ìká-mè nàˀsó kòrèbàhɨ́
-0.05866598	ìká-mè cʲóʔò-ɲʲú kòrèbàhɨ́
-0.05866598	ìká-mè ɲase kòrèbàhɨ́
-0.05866598	ìká-mè cɨ́ɨɨ̀mà̰mɨ̃̀ kòrèbàhɨ́
-0.05866598	ìká-mè wíˀtʰò-kʰá kòrèbàhɨ́
-0.05866598	ìká-mè ri*homo kòrèbàhɨ́
-0.05866598	ìká-mè ɲʲâː-ɳʲè kòrèbàhɨ́
-0.05866598	ìká-mè àːɨ́ kòrèbàhɨ́
-0.05866598	ìká-mè kʰàt́a kòrèbàhɨ́
-0.05866598	ìká-mè pítʰò-mé kòrèbàhɨ́
-0.05866598	ìká-mè àsósàíβɨ̀ kòrèbàhɨ́
-0.05866598	ìká-mè màʔá kòrèbàhɨ́
-0.05866598	ìká-mè kʰùkʰú-mɨ̀ kòrèbàhɨ́
-0.05866598	ìká-mè ka*imɨ̃̀ kòrèbàhɨ́
-0.05866598	ìká-mè àú-ɦɨ̀ʔɨ́ kòrèbàhɨ́
-0.05866598	ìká-mè kunareaβa kòrèbàhɨ́
-0.05866598	ìká-mè asireˀre kòrèbàhɨ́
-0.05866598	ìká-mè ôː-pɨ́ kòrèbàhɨ́
-0.05866598	ìká-mè t͡ʃɨ̃ʔt͡ʃɨ kòrèbàhɨ́
-0.05866598	ìká-mè t͡ʃaˀt͡ʃomɨ̃̀ kòrèbàhɨ́
-0.05866598	ìká-mè nàsó kòrèbàhɨ́
-0.05866598	ìká-mè maˀɲa kòrèbàhɨ́
-0.05866598	ìká-mè há*à-kʰôː-wɨ́ kòrèbàhɨ́
-0.05866598	ìká-mè βãˀβamɨ̃̀ kòrèbàhɨ́
-0.05866598	ìká-mè ɲʲáː-kʰɨ̀ kòrèbàhɨ́
-0.05866598	ìká-mè tʰòtʰá-m kòrèbàhɨ́
-0.05866598	ìká-mè ápè-ɲʲú kòrèbàhɨ́
-0.05866598	ìká-mè tʰoʔoro*o kòrèbàhɨ́
-0.05866598	ìká-mè t͡ʃoˀheo kòrèbàhɨ́
-0.05866598	ìká-mè ʰmaˀtɨ*karɨ kòrèbàhɨ́
-0.05866598	ìká-mè wu*e kòrèbàhɨ́
-0.05866598	ìká-mè ro*imɨ̃ kòrèbàhɨ́
-0.05866598	ìká-mè βiˀto kòrèbàhɨ́
-0.05866598	ìká-mè òkʰó kòrèbàhɨ́
-0.05866598	ìká-mè t͡ʃoˀt͡ʃomɨ̃ kòrèbàhɨ́
-0.05866598	ìká-mè eosẽ*e kòrèbàhɨ́
-0.05866598	ìká-mè o*et͡ʃo kòrèbàhɨ́
-0.05866598	ìká-mè uˀt͡ʃao kòrèbàhɨ́
-0.05866598	ìká-mè kʰò̰mà̰néɦɨ̰́*ɨ̀ kòrèbàhɨ́
-0.05866598	ìká-mè kòˀɦí kòrèbàhɨ́
-0.05866598	ìká-mè tʰòtʰácḛ̀ kòrèbàhɨ́
-0.05866598	ìká-mè sù̀kʰí-kʰàː kòrèbàhɨ́
-0.05866598	ìká-mè t͡ʃã*umɨ kòrèbàhɨ́
-0.05866598	ìká-mè t͡ʃòkòˀʰɲà kòrèbàhɨ́
-0.05866598	ìká-mè poˀnɨmɨ kòrèbàhɨ́
-0.05866598	ìká-mè pi*a kòrèbàhɨ́
-0.05866598	ìká-mè t͡ʃa*o kòrèbàhɨ́
-0.05866598	ìká-mè mìʔá kòrèbàhɨ́
-0.05866598	ìká-mè nè*é-ɲʲù kòrèbàhɨ́
-0.05866598	ìká-mè ǒː kòrèbàhɨ́
-0.05866598	ìká-mè maˀʔkarɨ kòrèbàhɨ́
-0.05866598	ìká-mè sòˀtʰó kòrèbàhɨ́
-0.05866598	ìká-mè sĩ*uɲɨ̃̀ kòrèbàhɨ́
-0.05866598	ìká-mè páì-ɨ́ kòrèbàhɨ́
-0.05866598	ìká-mè míàɲʲé kòrèbàhɨ́
-0.05866598	ìká-mè ka kòrèbàhɨ́
-0.05866598	ìká-mè hĩˀtu kòrèbàhɨ́
-0.05866598	ìká-mè ɸáàcé kòrèbàhɨ́
-2.386537	cɨ̀kɨ́nà ìká-mè t͡ʃɨ́òpí
-0.0023708323	cɨ̀kɨ́nà kòrèbàhɨ́ t͡ʃɨ́òpí
-0.12810273	ìká-mè kòrèbàhɨ́ t͡ʃɨ́òpí
-0.0023708323	po'o kòrèbàhɨ́ t͡ʃɨ́òpí
-0.0023708323	kòrèbàhɨ́ kòrèbàhɨ́ t͡ʃɨ́òpí
-0.0023708323	t͡ʃɨ́òpí kòrèbàhɨ́ t͡ʃɨ́òpí
-0.0023708323	t͡ʃio kòrèbàhɨ́ t͡ʃɨ́òpí
-0.0023708323	piˀnimo kòrèbàhɨ́ t͡ʃɨ́òpí
-0.0023708323	có*òcé kòrèbàhɨ́ t͡ʃɨ́òpí
-0.0023708323	ɨ*ɨmɨ̃ kòrèbàhɨ́ t͡ʃɨ́òpí
-0.0023708323	íè kòrèbàhɨ́ t͡ʃɨ́òpí
-0.0023708323	sìɦó-pɨ̀ kòrèbàhɨ́ t͡ʃɨ́òpí
-0.0023708323	kaimɨ̃̀ kòrèbàhɨ́ t͡ʃɨ́òpí
-0.0023708323	à*só kòrèbàhɨ́ t͡ʃɨ́òpí
-0.0023708323	nèˀné-mɨ̀ kòrèbàhɨ́ t͡ʃɨ́òpí
-0.0023708323	t͡ʃãˀsamɨ̃̀ kòrèbàhɨ́ t͡ʃɨ́òpí
-0.0023708323	t͡ʃã*o kòrèbàhɨ́ t͡ʃɨ́òpí
-0.0023708323	cʲóʔó-mɨ̀ kòrèbàhɨ́ t͡ʃɨ́òpí
-0.0023708323	sɨ̃sɨ kòrèbàhɨ́ t͡ʃɨ́òpí
-0.0023708323	kõˀsa kòrèbàhɨ́ t͡ʃɨ́òpí
-0.0023708323	àpè-cʲé kòrèbàhɨ́ t͡ʃɨ́òpí
-0.0023708323	hèˀná kòrèbàhɨ́ t͡ʃɨ́òpí
-0.0023708323	pia kòrèbàhɨ́ t͡ʃɨ́òpí
-0.0023708323	oˀromɨ̃ kòrèbàhɨ́ t͡ʃɨ́òpí
-0.0023708323	u*utĩˀkirɨ kòrèbàhɨ́ t͡ʃɨ́òpí
-0.0023708323	tʰòɲ̥ʲò-ɲʲé kòrèbàhɨ́ t͡ʃɨ́òpí
-0.0023708323	ìnsí kòrèbàhɨ́ t͡ʃɨ́òpí
-0.0023708323	t͡ʃiimo kòrèbàhɨ́ t͡ʃɨ́òpí
-0.0023708323	kaa kòrèbàhɨ́ t͡ʃɨ́òpí
-0.0023708323	ãˀkapɨ kòrèbàhɨ́ t͡ʃɨ́òpí
-0.0023708323	kónsàá kòrèbàhɨ́ t͡ʃɨ́òpí
-0.0023708323	kʰóˀkʰó-mà̰-mɨ̀ kòrèbàhɨ́ t͡ʃɨ́òpí
-0.0023708323	ho*e kòrèbàhɨ́ t͡ʃɨ́òpí
-0.0023708323	àɨ́ kòrèbàhɨ́ t͡ʃɨ́òpí
-0.0023708323	hu'epɨ̃ kòrèbàhɨ́ t͡ʃɨ́òpí
-0.0023708323	muˀkamɨ̃ kòrèbàhɨ́ t͡ʃɨ́òpí
-0.0023708323	pǎːmɨ̃̀ kòrèbàhɨ́ t͡ʃɨ́òpí
-0.0023708323	tʰâːɲʲè kòrèbàhɨ́ t͡ʃɨ́òpí
-0.0023708323	cʲɨ̌ː-mɨ̀ kòrèbàhɨ́ t͡ʃɨ́òpí
-0.0023708323	mǎː kòrèbàhɨ́ t͡ʃɨ́òpí
-0.0023708323	t͡ʃɨ̀í kòrèbàhɨ́ t͡ʃɨ́òpí
-0.0023708323	pãʔĩ kòrèbàhɨ́ t͡ʃɨ́òpí
-0.0023708323	ɸèémɨ̃̀ kòrèbàhɨ́ t͡ʃɨ́òpí
-0.0023708323	cʲô-ɦɨ́*ɨ̀ kòrèbàhɨ́ t͡ʃɨ́òpí
-0.0023708323	t͡ʃi*ime kòrèbàhɨ́ t͡ʃɨ́òpí
-0.0023708323	t͡ʃãumɨ̃̀ kòrèbàhɨ́ t͡ʃɨ́òpí
-0.0023708323	ápè-ɦáˀ-mɨ̀ kòrèbàhɨ́ t͡ʃɨ́òpí
-0.0023708323	cʲɨ̂-ːsósìkʰà-m kòrèbàhɨ́ t͡ʃɨ́òpí
-0.0023708323	ũkupiramɨ̃ kòrèbàhɨ́ t͡ʃɨ́òpí
-0.0023708323	ɲaʔuɲaʔumɨ̃̀ kòrèbàhɨ́ t͡ʃɨ́òpí
-0.0023708323	t͡ʃãsamɨ̃̀ kòrèbàhɨ́ t͡ʃɨ́òpí
-0.0023708323	kátà-pɨ́ kòrèbàhɨ́ t͡ʃɨ́òpí
-0.0023708323	sìɦó-pɨ̀-á kòrèbàhɨ́ t͡ʃɨ́òpí
-0.0023708323	kòhí kòrèbàhɨ́ t͡ʃɨ́òpí
-0.0023708323	t͡ʃa*opo kòrèbàhɨ́ t͡ʃɨ́òpí
-0.0023708323	t͡ʃĩ*õ kòrèbàhɨ́ t͡ʃɨ́òpí
-0.0023708323	hɨ̀tʰɨ́ kòrèbàhɨ́ t͡ʃɨ́òpí
-0.0023708323	sɨ̃ʔsɨ kòrèbàhɨ́ t͡ʃɨ́òpí
-0.0023708323	nè*é-màˀ-mɨ̀ kòrèbàhɨ́ t͡ʃɨ́òpí
-0.0023708323	tʰàɾá kòrèbàhɨ́ t͡ʃɨ́òpí
-0.0023708323	maˀʰɲoko kòrèbàhɨ́ t͡ʃɨ́òpí
-0.0023708323	ísḭ̀-pɨ́ kòrèbàhɨ́ t͡ʃɨ́òpí
-0.0023708323	kʰùtʰù-máˀ-mɨ̀ kòrèbàhɨ́ t͡ʃɨ́òpí
-0.0023708323	ɨ́ɦà-wɨ́ kòrèbàhɨ́ t͡ʃɨ́òpí
-0.0023708323	pà*í-mɨ̀ kòrèbàhɨ́ t͡ʃɨ́òpí
-0.0023708323	pìtʰó kòrèbàhɨ́ t͡ʃɨ́òpí
-0.0023708323	hàˀkɨ́ kòrèbàhɨ́ t͡ʃɨ́òpí
-0.0023708323	wèkʰɨ́ kòrèbàhɨ́ t͡ʃɨ́òpí
-0.0023708323	rèʔómɨ̃̀ kòrèbàhɨ́ t͡ʃɨ́òpí
-0.0023708323	ôːˀ-wɨ́ kòrèbàhɨ́ t͡ʃɨ́òpí
-0.0023708323	siˀsi*a kòrèbàhɨ́ t͡ʃɨ́òpí
-0.0023708323	cʲókʰò-ɲʲá kòrèbàhɨ́ t͡ʃɨ́òpí
-0.0023708323	kaβaˀna kòrèbàhɨ́ t͡ʃɨ́òpí
-0.0023708323	t͡ʃot͡ʃo kòrèbàhɨ́ t͡ʃɨ́òpí
-0.0023708323	tʰáɾà-pɨ́ kòrèbàhɨ́ t͡ʃɨ́òpí
-0.0023708323	ěː-mɨ̀ kòrèbàhɨ́ t͡ʃɨ́òpí
-0.0023708323	hueˀpɨ̃ kòrèbàhɨ́ t͡ʃɨ́òpí
-0.0023708323	áì-ʔó kòrèbàhɨ́ t͡ʃɨ́òpí
-0.0023708323	áì-pá kòrèbàhɨ́ t͡ʃɨ́òpí
-0.0023708323	kʰàí-mɨ̀ kòrèbàhɨ́ t͡ʃɨ́òpí
-0.0023708323	eamɨ̃̀ kòrèbàhɨ́ t͡ʃɨ́òpí
-0.0023708323	ko*ɨmɨ̃ kòrèbàhɨ́ t͡ʃɨ́òpí
-0.0023708323	kʰòmáɲè kòrèbàhɨ́ t͡ʃɨ́òpí
-0.0023708323	à*í kòrèbàhɨ́ t͡ʃɨ́òpí
-0.0023708323	ũˀku kòrèbàhɨ́ t͡ʃɨ́òpí
-0.0023708323	koɨo kòrèbàhɨ́ t͡ʃɨ́òpí
-0.0023708323	wìtʰó kòrèbàhɨ́ t͡ʃɨ́òpí
-0.0023708323	ponɨmɨ kòrèbàhɨ́ t͡ʃɨ́òpí
-0.0023708323	o*a kòrèbàhɨ́ t͡ʃɨ́òpí
-0.0023708323	ìká-mó kòrèbàhɨ́ t͡ʃɨ́òpí
-0.0023708323	t͡ʃai kòrèbàhɨ́ t͡ʃɨ́òpí
-0.0023708323	e*amɨ̃̀ kòrèbàhɨ́ t͡ʃɨ́òpí
-0.0023708323	ápè-máˀ-m kòrèbàhɨ́ t͡ʃɨ́òpí
-0.0023708323	ihaˀt͡ʃe kòrèbàhɨ́ t͡ʃɨ́òpí
-0.0023708323	hêʔhemɨ̃̀ kòrèbàhɨ́ t͡ʃɨ́òpí
-0.0023708323	t͡ʃe*ero kòrèbàhɨ́ t͡ʃɨ́òpí
-0.0023708323	ɾàɲʲá kòrèbàhɨ́ t͡ʃɨ́òpí
-0.0023708323	oˀnona kòrèbàhɨ́ t͡ʃɨ́òpí
-0.0023708323	ka*a kòrèbàhɨ́ t͡ʃɨ́òpí
-0.0023708323	korɨmɨ kòrèbàhɨ́ t͡ʃɨ́òpí
-0.0023708323	kueˀkomɨ̃̀ kòrèbàhɨ́ t͡ʃɨ́òpí
-0.0023708323	mɨ́òɲʲó kòrèbàhɨ́ t͡ʃɨ́òpí
-0.0023708323	ɲ̥ʲàtʰá kòrèbàhɨ́ t͡ʃɨ́òpí
-0.0023708323	hǎː-cɨ̂-sósìkɨ́-m kòrèbàhɨ́ t͡ʃɨ́òpí
-0.0023708323	nɨ̃ˀkemɨ̃ kòrèbàhɨ́ t͡ʃɨ́òpí
-0.0023708323	sàí-mɨ̀ kòrèbàhɨ́ t͡ʃɨ́òpí
-0.0023708323	ɾàɲʲá-péò-mɨ̀ kòrèbàhɨ́ t͡ʃɨ́òpí
-0.0023708323	kʰùkʰúcè kòrèbàhɨ́ t͡ʃɨ́òpí
-0.0023708323	mìkʰá̰pɨ̀ kòrèbàhɨ́ t͡ʃɨ́òpí
-0.0023708323	iʔse kòrèbàhɨ́ t͡ʃɨ́òpí
-0.0023708323	hõˀhomɨ̃ kòrèbàhɨ́ t͡ʃɨ́òpí
-0.0023708323	nèˀnè-máˀ-mɨ̀ kòrèbàhɨ́ t͡ʃɨ́òpí
-0.0023708323	áˀsò-á kòrèbàhɨ́ t͡ʃɨ́òpí
-0.0023708323	sisi*a kòrèbàhɨ́ t͡ʃɨ́òpí
-0.0023708323	mǎːɦàɲʲé kòrèbàhɨ́ t͡ʃɨ́òpí
-0.0023708323	cʲókʰò-á kòrèbàhɨ́ t͡ʃɨ́òpí
-0.0023708323	sèsé kòrèbàhɨ́ t͡ʃɨ́òpí
-0.0023708323	kʰáì-ɲʲé kòrèbàhɨ́ t͡ʃɨ́òpí
-0.0023708323	têʔtʰerɨ kòrèbàhɨ́ t͡ʃɨ́òpí
-0.0023708323	tʰóà-pɨ́ kòrèbàhɨ́ t͡ʃɨ́òpí
-0.0023708323	cʲácʲà-wàʔí kòrèbàhɨ́ t͡ʃɨ́òpí
-0.0023708323	mǎː-kâː kòrèbàhɨ́ t͡ʃɨ́òpí
-0.0023708323	poo kòrèbàhɨ́ t͡ʃɨ́òpí
-0.0023708323	βèˀβɨ́ kòrèbàhɨ́ t͡ʃɨ́òpí
-0.0023708323	siˀremo kòrèbàhɨ́ t͡ʃɨ́òpí
-0.0023708323	ɲ̥áɲ̥òmɨ̃̀ kòrèbàhɨ́ t͡ʃɨ́òpí
-0.0023708323	hà*ɨ́ kòrèbàhɨ́ t͡ʃɨ́òpí
-0.0023708323	ɲʲáː-ɦɨ̀ʔɨ́ kòrèbàhɨ́ t͡ʃɨ́òpí
-0.0023708323	ĩ*i kòrèbàhɨ́ t͡ʃɨ́òpí
-0.0023708323	hà*áɲɨ́ kòrèbàhɨ́ t͡ʃɨ́òpí
-0.0023708323	à̀pè-má-mɨ̀ kòrèbàhɨ́ t͡ʃɨ́òpí
-0.0023708323	β̞eʔse kòrèbàhɨ́ t͡ʃɨ́òpí
-0.0023708323	hohomɨ̃ kòrèbàhɨ́ t͡ʃɨ́òpí
-0.0023708323	ìká-mɨ́ kòrèbàhɨ́ t͡ʃɨ́òpí
-0.0023708323	nè*é-ɲʲù-màˀ-mɨ̀ kòrèbàhɨ́ t͡ʃɨ́òpí
-0.0023708323	kõsa kòrèbàhɨ́ t͡ʃɨ́òpí
-0.0023708323	kʰôː-wɨ́ kòrèbàhɨ́ t͡ʃɨ́òpí
-0.0023708323	hàʔó kòrèbàhɨ́ t͡ʃɨ́òpí
-0.0023708323	βẽβeɲɨ kòrèbàhɨ́ t͡ʃɨ́òpí
-0.0023708323	sìsó-mɨ̀ kòrèbàhɨ́ t͡ʃɨ́òpí
-0.0023708323	ɸèˀnémɨ̃̀ kòrèbàhɨ́ t͡ʃɨ́òpí
-0.0023708323	kǎːmàmó kòrèbàhɨ́ t͡ʃɨ́òpí
-0.0023708323	tʰõʔkamɨ kòrèbàhɨ́ t͡ʃɨ́òpí
-0.0023708323	peˀrumɨ̃̀ kòrèbàhɨ́ t͡ʃɨ́òpí
-0.0023708323	at͡ʃo kòrèbàhɨ́ t͡ʃɨ́òpí
-0.0023708323	ásímàká-pǎː-mɨ̀ kòrèbàhɨ́ t͡ʃɨ́òpí
-0.0023708323	aˀt͡ʃo kòrèbàhɨ́ t͡ʃɨ́òpí
-0.0023708323	mǎː-pɨ̀-á kòrèbàhɨ́ t͡ʃɨ́òpí
-0.0023708323	t͡ʃa*i kòrèbàhɨ́ t͡ʃɨ́òpí
-0.0023708323	kã*amɨ̀ kòrèbàhɨ́ t͡ʃɨ́òpí
-0.0023708323	mìmí kòrèbàhɨ́ t͡ʃɨ́òpí
-0.0023708323	t͡ʃeˀt͡ʃoˀt͡ʃe kòrèbàhɨ́ t͡ʃɨ́òpí
-0.0023708323	néàtʰó kòrèbàhɨ́ t͡ʃɨ́òpí
-0.0023708323	ʰɲáàɲhu*u kòrèbàhɨ́ t͡ʃɨ́òpí
-0.0023708323	ɨ́mɨ̀ɨ́ kòrèbàhɨ́ t͡ʃɨ́òpí
-0.0023708323	tʰòá kòrèbàhɨ́ t͡ʃɨ́òpí
-0.0023708323	ot͡ʃo-siˀβi kòrèbàhɨ́ t͡ʃɨ́òpí
-0.0023708323	ɲʲâː-ŋʲé kòrèbàhɨ́ t͡ʃɨ́òpí
-0.0023708323	ɲaˀse kòrèbàhɨ́ t͡ʃɨ́òpí
-0.0023708323	kunare*a kòrèbàhɨ́ t͡ʃɨ́òpí
-0.0023708323	kɨ̀náβàɦɨ́ kòrèbàhɨ́ t͡ʃɨ́òpí
-0.0023708323	kã: kòrèbàhɨ́ t͡ʃɨ́òpí
-0.0023708323	kòsákǎː kòrèbàhɨ́ t͡ʃɨ́òpí
-0.0023708323	aˀso kòrèbàhɨ́ t͡ʃɨ́òpí
-0.0023708323	ápè-ɨ̀á-mà̰-mɨ̀ kòrèbàhɨ́ t͡ʃɨ́òpí
-0.0023708323	ɨ̀ɦá-cʲáì-wà kòrèbàhɨ́ t͡ʃɨ́òpí
-0.0023708323	í-kʰôː-wɨ́ kòrèbàhɨ́ t͡ʃɨ́òpí
-0.0023708323	nèˀnè-ɲʲé kòrèbàhɨ́ t͡ʃɨ́òpí
-0.0023708323	suĩˀsuemɨ̃ kòrèbàhɨ́ t͡ʃɨ́òpí
-0.0023708323	t͡ʃa*oo kòrèbàhɨ́ t͡ʃɨ́òpí
-0.0023708323	à̰pémɨ̃̀ kòrèbàhɨ́ t͡ʃɨ́òpí
-0.0023708323	nàˀsó kòrèbàhɨ́ t͡ʃɨ́òpí
-0.0023708323	cʲóʔò-ɲʲú kòrèbàhɨ́ t͡ʃɨ́òpí
-0.0023708323	ɲase kòrèbàhɨ́ t͡ʃɨ́òpí
-0.0023708323	cɨ́ɨɨ̀mà̰mɨ̃̀ kòrèbàhɨ́ t͡ʃɨ́òpí
-0.0023708323	wíˀtʰò-kʰá kòrèbàhɨ́ t͡ʃɨ́òpí
-0.0023708323	ri*homo kòrèbàhɨ́ t͡ʃɨ́òpí
-0.0023708323	ɲʲâː-ɳʲè kòrèbàhɨ́ t͡ʃɨ́òpí
-0.0023708323	àːɨ́ kòrèbàhɨ́ t͡ʃɨ́òpí
-0.0023708323	kʰàt́a kòrèbàhɨ́ t͡ʃɨ́òpí
-0.0023708323	pítʰò-mé kòrèbàhɨ́ t͡ʃɨ́òpí
-0.0023708323	àsósàíβɨ̀ kòrèbàhɨ́ t͡ʃɨ́òpí
-0.0023708323	màʔá kòrèbàhɨ́ t͡ʃɨ́òpí
-0.0023708323	kʰùkʰú-mɨ̀ kòrèbàhɨ́ t͡ʃɨ́òpí
-0.0023708323	ka*imɨ̃̀ kòrèbàhɨ́ t͡ʃɨ́òpí
-0.0023708323	àú-ɦɨ̀ʔɨ́ kòrèbàhɨ́ t͡ʃɨ́òpí
-0.0023708323	kunareaβa kòrèbàhɨ́ t͡ʃɨ́òpí
-0.0023708323	asireˀre kòrèbàhɨ́ t͡ʃɨ́òpí
-0.0023708323	ôː-pɨ́ kòrèbàhɨ́ t͡ʃɨ́òpí
-0.0023708323	t͡ʃɨ̃ʔt͡ʃɨ kòrèbàhɨ́ t͡ʃɨ́òpí
-0.0023708323	t͡ʃaˀt͡ʃomɨ̃̀ kòrèbàhɨ́ t͡ʃɨ́òpí
-0.0023708323	nàsó kòrèbàhɨ́ t͡ʃɨ́òpí
-0.0023708323	maˀɲa kòrèbàhɨ́ t͡ʃɨ́òpí
-0.0023708323	há*à-kʰôː-wɨ́ kòrèbàhɨ́ t͡ʃɨ́òpí
-0.0023708323	βãˀβamɨ̃̀ kòrèbàhɨ́ t͡ʃɨ́òpí
-0.0023708323	ɲʲáː-kʰɨ̀ kòrèbàhɨ́ t͡ʃɨ́òpí
-0.0023708323	tʰòtʰá-m kòrèbàhɨ́ t͡ʃɨ́òpí
-0.0023708323	ápè-ɲʲú kòrèbàhɨ́ t͡ʃɨ́òpí
-0.0023708323	tʰoʔoro*o kòrèbàhɨ́ t͡ʃɨ́òpí
-0.0023708323	t͡ʃoˀheo kòrèbàhɨ́ t͡ʃɨ́òpí
-0.0023708323	ʰmaˀtɨ*karɨ kòrèbàhɨ́ t͡ʃɨ́òpí
-0.0023708323	wu*e kòrèbàhɨ́ t͡ʃɨ́òpí
-0.0023708323	ro*imɨ̃ kòrèbàhɨ́ t͡ʃɨ́òpí
-0.0023708323	βiˀto kòrèbàhɨ́ t͡ʃɨ́òpí
-0.0023708323	òkʰó kòrèbàhɨ́ t͡ʃɨ́òpí
-0.0023708323	t͡ʃoˀt͡ʃomɨ̃ kòrèbàhɨ́ t͡ʃɨ́òpí
-0.0023708323	eosẽ*e kòrèbàhɨ́ t͡ʃɨ́òpí
-0.0023708323	o*et͡ʃo kòrèbàhɨ́ t͡ʃɨ́òpí
-0.0023708323	uˀt͡ʃao kòrèbàhɨ́ t͡ʃɨ́òpí
-0.0023708323	kʰò̰mà̰néɦɨ̰́*ɨ̀ kòrèbàhɨ́ t͡ʃɨ́òpí
-0.0023708323	kòˀɦí kòrèbàhɨ́ t͡ʃɨ́òpí
-0.0023708323	tʰòtʰácḛ̀ kòrèbàhɨ́ t͡ʃɨ́òpí
-0.0023708323	sù̀kʰí-kʰàː kòrèbàhɨ́ t͡ʃɨ́òpí
-0.0023708323	t͡ʃã*umɨ kòrèbàhɨ́ t͡ʃɨ́òpí
-0.0023708323	t͡ʃòkòˀʰɲà kòrèbàhɨ́ t͡ʃɨ́òpí
-0.0023708323	poˀnɨmɨ kòrèbàhɨ́ t͡ʃɨ́òpí
-0.0023708323	pi*a kòrèbàhɨ́ t͡ʃɨ́òpí
-0.0023708323	t͡ʃa*o kòrèbàhɨ́ t͡ʃɨ́òpí
-0.0023708323	mìʔá kòrèbàhɨ́ t͡ʃɨ́òpí
-0.0023708323	nè*é-ɲʲù kòrèbàhɨ́ t͡ʃɨ́òpí
-0.0023708323	ǒː kòrèbàhɨ́ t͡ʃɨ́òpí
-0.0023708323	maˀʔkarɨ kòrèbàhɨ́ t͡ʃɨ́òpí
-0.0023708323	sòˀtʰó kòrèbàhɨ́ t͡ʃɨ́òpí
-0.0023708323	sĩ*uɲɨ̃̀ kòrèbàhɨ́ t͡ʃɨ́òpí
-0.0023708323	páì-ɨ́ kòrèbàhɨ́ t͡ʃɨ́òpí
-0.0023708323	míàɲʲé kòrèbàhɨ́ t͡ʃɨ́òpí
-0.0023708323	ka kòrèbàhɨ́ t͡ʃɨ́òpí
-0.0023708323	hĩˀtu kòrèbàhɨ́ t͡ʃɨ́òpí
-0.0023708323	ɸáàcé kòrèbàhɨ́ t͡ʃɨ́òpí
-2.4163384	cɨ̀kɨ́nà ìká-mè t͡ʃio
-2.4163384	cɨ̀kɨ́nà ìká-mè piˀnimo
-2.4163384	cɨ̀kɨ́nà ìká-mè có*òcé
-2.4163384	cɨ̀kɨ́nà ìká-mè ɨ*ɨmɨ̃
-2.4163384	cɨ̀kɨ́nà ìká-mè íè
-2.4163384	cɨ̀kɨ́nà ìká-mè sìɦó-pɨ̀
-2.4163384	cɨ̀kɨ́nà ìká-mè kaimɨ̃̀
-2.4163384	cɨ̀kɨ́nà ìká-mè à*só
-2.4163384	cɨ̀kɨ́nà ìká-mè nèˀné-mɨ̀
-2.4163384	cɨ̀kɨ́nà ìká-mè t͡ʃãˀsamɨ̃̀
-2.4163384	cɨ̀kɨ́nà ìká-mè t͡ʃã*o
-2.4163384	cɨ̀kɨ́nà ìká-mè cʲóʔó-mɨ̀
-2.4163384	cɨ̀kɨ́nà ìká-mè sɨ̃sɨ
-2.4163384	cɨ̀kɨ́nà ìká-mè kõˀsa
-2.4163384	cɨ̀kɨ́nà ìká-mè àpè-cʲé
-2.4163384	cɨ̀kɨ́nà ìká-mè hèˀná
-2.4163384	cɨ̀kɨ́nà ìká-mè pia
-2.4163384	cɨ̀kɨ́nà ìká-mè oˀromɨ̃
-2.4163384	cɨ̀kɨ́nà ìká-mè u*utĩˀkirɨ
-2.4163384	cɨ̀kɨ́nà ìká-mè tʰòɲ̥ʲò-ɲʲé
-2.4163384	cɨ̀kɨ́nà ìká-mè ìnsí
-2.4163384	cɨ̀kɨ́nà ìká-mè t͡ʃiimo
-2.4163384	cɨ̀kɨ́nà ìká-mè kaa
-2.4163384	cɨ̀kɨ́nà ìká-mè ãˀkapɨ
-2.4163384	cɨ̀kɨ́nà ìká-mè kónsàá
-2.4163384	cɨ̀kɨ́nà ìká-mè kʰóˀkʰó-mà̰-mɨ̀
-2.4163384	cɨ̀kɨ́nà ìká-mè ho*e
-2.4163384	cɨ̀kɨ́nà ìká-mè àɨ́
-2.4163384	cɨ̀kɨ́nà ìká-mè hu'epɨ̃
-2.4163384	cɨ̀kɨ́nà ìká-mè muˀkamɨ̃
-2.4163384	cɨ̀kɨ́nà ìká-mè pǎːmɨ̃̀
-2.4163384	cɨ̀kɨ́nà ìká-mè tʰâːɲʲè
-2.4163384	cɨ̀kɨ́nà ìká-mè cʲɨ̌ː-mɨ̀
-2.4163384	cɨ̀kɨ́nà ìká-mè mǎː
-2.4163384	cɨ̀kɨ́nà ìká-mè t͡ʃɨ̀í
-2.4163384	cɨ̀kɨ́nà ìká-mè pãʔĩ
-2.4163384	cɨ̀kɨ́nà ìká-mè ɸèémɨ̃̀
-2.4163384	cɨ̀kɨ́nà ìká-mè cʲô-ɦɨ́*ɨ̀
-2.4163384	cɨ̀kɨ́nà ìká-mè t͡ʃi*ime
-2.4163384	cɨ̀kɨ́nà ìká-mè t͡ʃãumɨ̃̀
-2.4163384	cɨ̀kɨ́nà ìká-mè ápè-ɦáˀ-mɨ̀
-2.4163384	cɨ̀kɨ́nà ìká-mè cʲɨ̂-ːsósìkʰà-m
-2.4163384	cɨ̀kɨ́nà ìká-mè ũkupiramɨ̃
-2.4163384	cɨ̀kɨ́nà ìká-mè ɲaʔuɲaʔumɨ̃̀
-2.4163384	cɨ̀kɨ́nà ìká-mè t͡ʃãsamɨ̃̀
-2.4163384	cɨ̀kɨ́nà ìká-mè kátà-pɨ́
-2.4163384	cɨ̀kɨ́nà ìká-mè sìɦó-pɨ̀-á
-2.4163384	cɨ̀kɨ́nà ìká-mè kòhí
-2.4163384	cɨ̀kɨ́nà ìká-mè t͡ʃa*opo
-2.4163384	cɨ̀kɨ́nà ìká-mè t͡ʃĩ*õ
-2.4163384	cɨ̀kɨ́nà ìká-mè hɨ̀tʰɨ́
-2.4163384	cɨ̀kɨ́nà ìká-mè sɨ̃ʔsɨ
-2.4163384	cɨ̀kɨ́nà ìká-mè nè*é-màˀ-mɨ̀
-2.4163384	cɨ̀kɨ́nà ìká-mè tʰàɾá
-2.4163384	cɨ̀kɨ́nà ìká-mè maˀʰɲoko
-2.4163384	cɨ̀kɨ́nà ìká-mè ísḭ̀-pɨ́
-2.4163384	cɨ̀kɨ́nà ìká-mè kʰùtʰù-máˀ-mɨ̀
-2.4163384	cɨ̀kɨ́nà ìká-mè ɨ́ɦà-wɨ́
-2.4163384	cɨ̀kɨ́nà ìká-mè pà*í-mɨ̀
-2.4163384	cɨ̀kɨ́nà ìká-mè pìtʰó
-2.4163384	cɨ̀kɨ́nà ìká-mè hàˀkɨ́
-2.4163384	cɨ̀kɨ́nà ìká-mè wèkʰɨ́
-2.4163384	cɨ̀kɨ́nà ìká-mè rèʔómɨ̃̀
-2.4163384	cɨ̀kɨ́nà ìká-mè ôːˀ-wɨ́
-2.4163384	cɨ̀kɨ́nà ìká-mè siˀsi*a
-2.4163384	cɨ̀kɨ́nà ìká-mè cʲókʰò-ɲʲá
-2.4163384	cɨ̀kɨ́nà ìká-mè kaβaˀna
-2.4163384	cɨ̀kɨ́nà ìká-mè t͡ʃot͡ʃo
-2.4163384	cɨ̀kɨ́nà ìká-mè tʰáɾà-pɨ́
-2.4163384	cɨ̀kɨ́nà ìká-mè ěː-mɨ̀
-2.4163384	cɨ̀kɨ́nà ìká-mè hueˀpɨ̃
-2.4163384	cɨ̀kɨ́nà ìká-mè áì-ʔó
-2.4163384	cɨ̀kɨ́nà ìká-mè áì-pá
-2.4163384	cɨ̀kɨ́nà ìká-mè kʰàí-mɨ̀
-2.4163384	cɨ̀kɨ́nà ìká-mè eamɨ̃̀
-2.4163384	cɨ̀kɨ́nà ìká-mè ko*ɨmɨ̃
-2.4163384	cɨ̀kɨ́nà ìká-mè kʰòmáɲè
-2.4163384	cɨ̀kɨ́nà ìká-mè à*í
-2.4163384	cɨ̀kɨ́nà ìká-mè ũˀku
-2.4163384	cɨ̀kɨ́nà ìká-mè koɨo
-2.4163384	cɨ̀kɨ́nà ìká-mè wìtʰó
-2.4163384	cɨ̀kɨ́nà ìká-mè ponɨmɨ
-2.4163384	cɨ̀kɨ́nà ìká-mè o*a
-2.4163384	cɨ̀kɨ́nà ìká-mè ìká-mó
-2.4163384	cɨ̀kɨ́nà ìká-mè t͡ʃai
-2.4163384	cɨ̀kɨ́nà ìká-mè e*amɨ̃̀
-2.4163384	cɨ̀kɨ́nà ìká-mè ápè-máˀ-m
-2.4163384	cɨ̀kɨ́nà ìká-mè ihaˀt͡ʃe
-2.4163384	cɨ̀kɨ́nà ìká-mè hêʔhemɨ̃̀
-2.4163384	cɨ̀kɨ́nà ìká-mè t͡ʃe*ero
-2.4163384	cɨ̀kɨ́nà ìká-mè ɾàɲʲá
-2.4163384	cɨ̀kɨ́nà ìká-mè oˀnona
-2.4163384	cɨ̀kɨ́nà ìká-mè ka*a
-2.4163384	cɨ̀kɨ́nà ìká-mè korɨmɨ
-2.4163384	cɨ̀kɨ́nà ìká-mè kueˀkomɨ̃̀
-2.4163384	cɨ̀kɨ́nà ìká-mè mɨ́òɲʲó
-2.4163384	cɨ̀kɨ́nà ìká-mè ɲ̥ʲàtʰá
-2.4163384	cɨ̀kɨ́nà ìká-mè hǎː-cɨ̂-sósìkɨ́-m
-2.4163384	cɨ̀kɨ́nà ìká-mè nɨ̃ˀkemɨ̃
-2.4163384	cɨ̀kɨ́nà ìká-mè sàí-mɨ̀
-2.4163384	cɨ̀kɨ́nà ìká-mè ɾàɲʲá-péò-mɨ̀
-2.4163384	cɨ̀kɨ́nà ìká-mè kʰùkʰúcè
-2.4163384	cɨ̀kɨ́nà ìká-mè mìkʰá̰pɨ̀
-2.4163384	cɨ̀kɨ́nà ìká-mè iʔse
-2.4163384	cɨ̀kɨ́nà ìká-mè hõˀhomɨ̃
-2.4163384	cɨ̀kɨ́nà ìká-mè nèˀnè-máˀ-mɨ̀
-2.4163384	cɨ̀kɨ́nà ìká-mè áˀsò-á
-2.4163384	cɨ̀kɨ́nà ìká-mè sisi*a
-2.4163384	cɨ̀kɨ́nà ìká-mè mǎːɦàɲʲé
-2.4163384	cɨ̀kɨ́nà ìká-mè cʲókʰò-á
-2.4163384	cɨ̀kɨ́nà ìká-mè sèsé
-2.4163384	cɨ̀kɨ́nà ìká-mè kʰáì-ɲʲé
-2.4163384	cɨ̀kɨ́nà ìká-mè têʔtʰerɨ
-2.4163384	cɨ̀kɨ́nà ìká-mè tʰóà-pɨ́
-2.4163384	cɨ̀kɨ́nà ìká-mè cʲácʲà-wàʔí
-2.4163384	cɨ̀kɨ́nà ìká-mè mǎː-kâː
-2.4163384	cɨ̀kɨ́nà ìká-mè poo
-2.4163384	cɨ̀kɨ́nà ìká-mè βèˀβɨ́
-2.4163384	cɨ̀kɨ́nà ìká-mè siˀremo
-2.4163384	cɨ̀kɨ́nà ìká-mè ɲ̥áɲ̥òmɨ̃̀
-2.4163384	cɨ̀kɨ́nà ìká-mè hà*ɨ́
-2.4163384	cɨ̀kɨ́nà ìká-mè ɲʲáː-ɦɨ̀ʔɨ́
-2.4163384	cɨ̀kɨ́nà ìká-mè ĩ*i
-2.4163384	cɨ̀kɨ́nà ìká-mè hà*áɲɨ́
-2.4163384	cɨ̀kɨ́nà ìká-mè à̀pè-má-mɨ̀
-2.4163384	cɨ̀kɨ́nà ìká-mè β̞eʔse
-2.4163384	cɨ̀kɨ́nà ìká-mè hohomɨ̃
-2.4163384	cɨ̀kɨ́nà ìká-mè ìká-mɨ́
-2.4163384	cɨ̀kɨ́nà ìká-mè nè*é-ɲʲù-màˀ-mɨ̀
-2.4163384	cɨ̀kɨ́nà ìká-mè kõsa
-2.4163384	cɨ̀kɨ́nà ìká-mè kʰôː-wɨ́
-2.4163384	cɨ̀kɨ́nà ìká-mè hàʔó
-2.4163384	cɨ̀kɨ́nà ìká-mè βẽβeɲɨ
-2.4163384	cɨ̀kɨ́nà ìká-mè sìsó-mɨ̀
-2.4163384	cɨ̀kɨ́nà ìká-mè ɸèˀnémɨ̃̀
-2.4163384	cɨ̀kɨ́nà ìká-mè kǎːmàmó
-2.4163384	cɨ̀kɨ́nà ìká-mè tʰõʔkamɨ
-2.4163384	cɨ̀kɨ́nà ìká-mè peˀrumɨ̃̀
-2.4163384	cɨ̀kɨ́nà ìká-mè at͡ʃo
-2.4163384	cɨ̀kɨ́nà ìká-mè ásímàká-pǎː-mɨ̀
-2.4163384	cɨ̀kɨ́nà ìká-mè aˀt͡ʃo
-2.4163384	cɨ̀kɨ́nà ìká-mè mǎː-pɨ̀-á
-2.4163384	cɨ̀kɨ́nà ìká-mè t͡ʃa*i
-2.4163384	cɨ̀kɨ́nà ìká-mè kã*amɨ̀
-2.4163384	cɨ̀kɨ́nà ìká-mè mìmí
-2.4163384	cɨ̀kɨ́nà ìká-mè t͡ʃeˀt͡ʃoˀt͡ʃe
-2.4163384	cɨ̀kɨ́nà ìká-mè néàtʰó
-2.4163384	cɨ̀kɨ́nà ìká-mè ʰɲáàɲhu*u
-2.4163384	cɨ̀kɨ́nà ìká-mè ɨ́mɨ̀ɨ́
-2.4163384	cɨ̀kɨ́nà ìká-mè tʰòá
-2.4163384	cɨ̀kɨ́nà ìká-mè ot͡ʃo-siˀβi
-2.4163384	cɨ̀kɨ́nà ìká-mè ɲʲâː-ŋʲé
-2.4163384	cɨ̀kɨ́nà ìká-mè ɲaˀse
-2.4163384	cɨ̀kɨ́nà ìká-mè kunare*a
-2.4163384	cɨ̀kɨ́nà ìká-mè kɨ̀náβàɦɨ́
-2.4163384	cɨ̀kɨ́nà ìká-mè kã:
-2.4163384	cɨ̀kɨ́nà ìká-mè kòsákǎː
-2.4163384	cɨ̀kɨ́nà ìká-mè aˀso
-2.4163384	cɨ̀kɨ́nà ìká-mè ápè-ɨ̀á-mà̰-mɨ̀
-2.4163384	cɨ̀kɨ́nà ìká-mè ɨ̀ɦá-cʲáì-wà
-2.4163384	cɨ̀kɨ́nà ìká-mè í-kʰôː-wɨ́
-2.4163384	cɨ̀kɨ́nà ìká-mè nèˀnè-ɲʲé
-2.4163384	cɨ̀kɨ́nà ìká-mè suĩˀsuemɨ̃
-2.4163384	cɨ̀kɨ́nà ìká-mè t͡ʃa*oo
-2.4163384	cɨ̀kɨ́nà ìká-mè à̰pémɨ̃̀
-2.4163384	cɨ̀kɨ́nà ìká-mè nàˀsó
-2.4163384	cɨ̀kɨ́nà ìká-mè cʲóʔò-ɲʲú
-2.4163384	cɨ̀kɨ́nà ìká-mè ɲase
-2.4163384	cɨ̀kɨ́nà ìká-mè cɨ́ɨɨ̀mà̰mɨ̃̀
-2.4163384	cɨ̀kɨ́nà ìká-mè wíˀtʰò-kʰá
-2.4163384	cɨ̀kɨ́nà ìká-mè ri*homo
-2.4163384	cɨ̀kɨ́nà ìká-mè ɲʲâː-ɳʲè
-2.4163384	cɨ̀kɨ́nà ìká-mè àːɨ́
-2.4163384	cɨ̀kɨ́nà ìká-mè kʰàt́a
-2.4163384	cɨ̀kɨ́nà ìká-mè pítʰò-mé
-2.4163384	cɨ̀kɨ́nà ìká-mè àsósàíβɨ̀
-2.4163384	cɨ̀kɨ́nà ìká-mè màʔá
-2.4163384	cɨ̀kɨ́nà ìká-mè kʰùkʰú-mɨ̀
-2.4163384	cɨ̀kɨ́nà ìká-mè ka*imɨ̃̀
-2.4163384	cɨ̀kɨ́nà ìká-mè àú-ɦɨ̀ʔɨ́
-2.4163384	cɨ̀kɨ́nà ìká-mè kunareaβa
-2.4163384	cɨ̀kɨ́nà ìká-mè asireˀre
-2.4163384	cɨ̀kɨ́nà ìká-mè ôː-pɨ́
-2.4163384	cɨ̀kɨ́nà ìká-mè t͡ʃɨ̃ʔt͡ʃɨ
-2.4163384	cɨ̀kɨ́nà ìká-mè t͡ʃaˀt͡ʃomɨ̃̀
-2.4163384	cɨ̀kɨ́nà ìká-mè nàsó
-2.4163384	cɨ̀kɨ́nà ìká-mè maˀɲa
-2.4163384	cɨ̀kɨ́nà ìká-mè há*à-kʰôː-wɨ́
-2.4163384	cɨ̀kɨ́nà ìká-mè βãˀβamɨ̃̀
-2.4163384	cɨ̀kɨ́nà ìká-mè ɲʲáː-kʰɨ̀
-2.4163384	cɨ̀kɨ́nà ìká-mè tʰòtʰá-m
-2.4163384	cɨ̀kɨ́nà ìká-mè ápè-ɲʲú
-2.4163384	cɨ̀kɨ́nà ìká-mè tʰoʔoro*o
-2.4163384	cɨ̀kɨ́nà ìká-mè t͡ʃoˀheo
-2.4163384	cɨ̀kɨ́nà ìká-mè ʰmaˀtɨ*karɨ
-2.4163384	cɨ̀kɨ́nà ìká-mè wu*e
-2.4163384	cɨ̀kɨ́nà ìká-mè ro*imɨ̃
-2.4163384	cɨ̀kɨ́nà ìká-mè βiˀto
-2.4163384	cɨ̀kɨ́nà ìká-mè òkʰó
-2.4163384	cɨ̀kɨ́nà ìká-mè t͡ʃoˀt͡ʃomɨ̃
-2.4163384	cɨ̀kɨ́nà ìká-mè eosẽ*e
-2.4163384	cɨ̀kɨ́nà ìká-mè o*et͡ʃo
-2.4163384	cɨ̀kɨ́nà ìká-mè uˀt͡ʃao
-2.4163384	cɨ̀kɨ́nà ìká-mè kʰò̰mà̰néɦɨ̰́*ɨ̀
-2.4163384	cɨ̀kɨ́nà ìká-mè kòˀɦí
-2.4163384	cɨ̀kɨ́nà ìká-mè tʰòtʰácḛ̀
-2.4163384	cɨ̀kɨ́nà ìká-mè sù̀kʰí-kʰàː
-2.4163384	cɨ̀kɨ́nà ìká-mè t͡ʃã*umɨ
-2.4163384	cɨ̀kɨ́nà ìká-mè t͡ʃòkòˀʰɲà
-2.4163384	cɨ̀kɨ́nà ìká-mè poˀnɨmɨ
-2.4163384	cɨ̀kɨ́nà ìká-mè pi*a
-2.4163384	cɨ̀kɨ́nà ìká-mè t͡ʃa*o
-2.4163384	cɨ̀kɨ́nà ìká-mè mìʔá
-2.4163384	cɨ̀kɨ́nà ìká-mè nè*é-ɲʲù
-2.4163384	cɨ̀kɨ́nà ìká-mè ǒː
-2.4163384	cɨ̀kɨ́nà ìká-mè maˀʔkarɨ
-2.4163384	cɨ̀kɨ́nà ìká-mè sòˀtʰó
-2.4163384	cɨ̀kɨ́nà ìká-mè sĩ*uɲɨ̃̀
-2.4163384	cɨ̀kɨ́nà ìká-mè páì-ɨ́
-2.4163384	cɨ̀kɨ́nà ìká-mè míàɲʲé
-2.4163384	cɨ̀kɨ́nà ìká-mè ka
-2.4163384	cɨ̀kɨ́nà ìká-mè hĩˀtu
-2.4163384	cɨ̀kɨ́nà ìká-mè ɸáàcé

\end\
